{"learner":{"attributes":{"scikit_learn":"{\"_estimator_type\": \"classifier\"}"},"feature_names":[],"feature_types":[],"gradient_booster":{"model":{"cats":{"enc":[],"feature_segments":[],"sorted_idx":[]},"gbtree_model_param":{"num_parallel_tree":"1","num_trees":"400"},"iteration_indptr":[0,4,8,12,16,20,24,28,32,36,40,44,48,52,56,60,64,68,72,76,80,84,88,92,96,100,104,108,112,116,120,124,128,132,136,140,144,148,152,156,160,164,168,172,176,180,184,188,192,196,200,204,208,212,216,220,224,228,232,236,240,244,248,252,256,260,264,268,272,276,280,284,288,292,296,300,304,308,312,316,320,324,328,332,336,340,344,348,352,356,360,364,368,372,376,380,384,388,392,396,400],"tree_info":[0,1,2,3,0,1,2,3,0,1,2,3,0,1,2,3,0,1,2,3,0,1,2,3,0,1,2,3,0,1,2,3,0,1,2,3,0,1,2,3,0,1,2,3,0,1,2,3,0,1,2,3,0,1,2,3,0,1,2,3,0,1,2,3,0,1,2,3,0,1,2,3,0,1,2,3,0,1,2,3,0,1,2,3,0,1,2,3,0,1,2,3,0,1,2,3,0,1,2,3,0,1,2,3,0,1,2,3,0,1,2,3,0,1,2,3,0,1,2,3,0,1,2,3,0,1,2,3,0,1,2,3,0,1,2,3,0,1,2,3,0,1,2,3,0,1,2,3,0,1,2,3,0,1,2,3,0,1,2,3,0,1,2,3,0,1,2,3,0,1,2,3,0,1,2,3,0,1,2,3,0,1,2,3,0,1,2,3,0,1,2,3,0,1,2,3,0,1,2,3,0,1,2,3,0,1,2,3,0,1,2,3,0,1,2,3,0,1,2,3,0,1,2,3,0,1,2,3,0,1,2,3,0,1,2,3,0,1,2,3,0,1,2,3,0,1,2,3,0,1,2,3,0,1,2,3,0,1,2,3,0,1,2,3,0,1,2,3,0,1,2,3,0,1,2,3,0,1,2,3,0,1,2,3,0,1,2,3,0,1,2,3,0,1,2,3,0,1,2,3,0,1,2,3,0,1,2,3,0,1,2,3,0,1,2,3,0,1,2,3,0,1,2,3,0,1,2,3,0,1,2,3,0,1,2,3,0,1,2,3,0,1,2,3,0,1,2,3,0,1,2,3,0,1,2,3,0,1,2,3,0,1,2,3,0,1,2,3,0,1,2,3,0,1,2,3,0,1,2,3,0,1,2,3,0,1,2,3,0,1,2,3,0,1,2,3,0,1,2,3],"trees":[{"base_weights":[-2.4682013E-6,-3.179598E-1,2.0348685E0,-4.3697804E-1,1.1816971E0,1.1380248E0,2.9360628E0,-4.5897204E-1,1.7980213E0,3.9027688E-1,2.0217347E0,6.02353E-1,2.6821554E0,2.2470322E0,3.590653E0,-5.3450036E-1,-1.4972517E-1,2.318243E0,-1.2226096E-1,7.37035E-2,2.3530114E0,1.3379128E0,3.045359E0,1.5055138E-1,2.1817534E0,3.0745833E0,1.1976006E0,2.960765E0,1.14473E0,3.9085886E0,2.9339464E0,-5.4862347E-2,-1.12801595E-2,-4.332662E-2,3.186478E-2,3.2553166E-1,1.8955247E-1,-3.212172E-2,5.988986E-2,-2.2705713E-2,6.595444E-2,1.2791553E-1,3.0687502E-1,1.9601224E-1,1.1468395E-2,3.6755717E-1,2.0981808E-1,5.8514144E-2,-2.7483096E-2,2.645912E-1,6.774088E-2,2.4283846E-1,3.6701614E-1,2.7081747E-2,2.1793936E-1,2.4012391E-1,3.9019334E-1,2.8921217E-2,2.5996917E-1,4.0248474E-1,1.08833335E-1,2.1804021E-1,3.605771E-1],"categories":[],"categories_nodes":[],"categories_segments":[],"categories_sizes":[],"default_left":[0,0,0,0,0,0,0,0,0,0,0,0,0,0,0,0,0,0,0,0,0,0,0,0,0,0,0,0,0,0,0,0,0,0,0,0,0,0,0,0,0,0,0,0,0,0,0,0,0,0,0,0,0,0,0,0,0,0,0,0,0,0,0],"id":0,"left_children":[1,3,5,7,9,11,13,15,17,19,21,23,25,27,29,31,33,35,37,39,41,43,45,47,49,51,53,55,57,59,61,-1,-1,-1,-1,-1,-1,-1,-1,-1,-1,-1,-1,-1,-1,-1,-1,-1,-1,-1,-1,-1,-1,-1,-1,-1,-1,-1,-1,-1,-1,-1,-1],"loss_changes":[4.4888667E3,1.0715009E3,7.544414E2,2.7413074E2,2.9270758E2,3.8843286E2,2.0257495E2,1.2853528E2,5.4611145E1,1.4183604E2,1.4566187E2,2.5041782E2,6.6906006E1,1.7771936E2,3.8187744E1,2.6293335E1,1.4386736E2,1.0799637E1,1.9919491E0,3.500857E1,2.0447678E1,9.8739746E1,4.295984E1,5.087118E1,5.2731964E1,2.7724121E1,2.3950382E1,6.3880005E1,1.13892265E2,4.7173584E1,3.34433E1,0E0,0E0,0E0,0E0,0E0,0E0,0E0,0E0,0E0,0E0,0E0,0E0,0E0,0E0,0E0,0E0,0E0,0E0,0E0,0E0,0E0,0E0,0E0,0E0,0E0,0E0,0E0,0E0,0E0,0E0,0E0,0E0],"parents":[2147483647,0,0,1,1,2,2,3,3,4,4,5,5,6,6,7,7,8,8,9,9,10,10,11,11,12,12,13,13,14,14,15,15,16,16,17,17,18,18,19,19,20,20,21,21,22,22,23,23,24,24,25,25,26,26,27,27,28,28,29,29,30,30],"right_children":[2,4,6,8,10,12,14,16,18,20,22,24,26,28,30,32,34,36,38,40,42,44,46,48,50,52,54,56,58,60,62,-1,-1,-1,-1,-1,-1,-1,-1,-1,-1,-1,-1,-1,-1,-1,-1,-1,-1,-1,-1,-1,-1,-1,-1,-1,-1,-1,-1,-1,-1,-1,-1],"split_conditions":[1.0561657E0,1.0489944E0,-3.7250632E-1,3.6771019E0,-3.4263566E-1,1.0360761E0,1.7681316E0,1.5434216E-1,-3.949411E-2,3.6797447E0,1.9172989E0,2.6224906E0,5.865108E-1,-1.7080139E-1,-1.2481872E-1,6.350823E-1,-2.210194E-1,2.7077641E0,-3.1798634E-1,1.9172989E0,3.1185548E0,-1.7080139E-1,-1.7080139E-1,3.6913487E-1,8.493884E-1,1.9579892E0,1.6494706E0,1.548532E-1,9.1102374E-1,6.5298753E0,1.548532E-1,-5.4862347E-2,-1.12801595E-2,-4.332662E-2,3.186478E-2,3.2553166E-1,1.8955247E-1,-3.212172E-2,5.988986E-2,-2.2705713E-2,6.595444E-2,1.2791553E-1,3.0687502E-1,1.9601224E-1,1.1468395E-2,3.6755717E-1,2.0981808E-1,5.8514144E-2,-2.7483096E-2,2.645912E-1,6.774088E-2,2.4283846E-1,3.6701614E-1,2.7081747E-2,2.1793936E-1,2.4012391E-1,3.9019334E-1,2.8921217E-2,2.5996917E-1,4.0248474E-1,1.08833335E-1,2.1804021E-1,3.605771E-1],"split_indices":[12,18,31,31,31,19,12,12,26,19,19,12,38,15,26,18,31,13,4,19,18,15,15,32,32,12,12,19,18,13,19,0,0,0,0,0,0,0,0,0,0,0,0,0,0,0,0,0,0,0,0,0,0,0,0,0,0,0,0,0,0,0,0],"split_type":[0,0,0,0,0,0,0,0,0,0,0,0,0,0,0,0,0,0,0,0,0,0,0,0,0,0,0,0,0,0,0,0,0,0,0,0,0,0,0,0,0,0,0,0,0,0,0,0,0,0,0,0,0,0,0,0,0,0,0,0,0,0,0],"sum_hessian":[6.935948E3,5.999365E3,9.365828E2,5.5588994E3,4.4046597E2,4.7055865E2,4.6602414E2,5.5055156E3,5.338357E1,2.2755005E2,2.1291594E2,3.503941E2,1.20164566E2,2.2919896E2,2.3682518E2,4.4242407E3,1.0812749E3,4.184118E1,1.1542394E1,1.9683904E2,3.0711012E1,1.2902747E2,8.3888466E1,2.733074E2,7.70867E1,9.4194176E1,2.5970387E1,1.380965E2,9.110246E1,1.5623454E2,8.0590645E1,4.280579E3,1.4366158E2,6.735811E2,4.0769385E2,1.0924051E1,3.0917126E1,9.481252E0,2.0611417E0,1.3047028E2,6.636877E1,1.3397421E1,1.7313591E1,8.512515E1,4.3902317E1,4.8642944E1,3.5245525E1,1.3500478E2,1.3830261E2,5.833031E1,1.875639E1,4.7612373E1,4.6581802E1,1.4015764E1,1.1954622E1,8.8835205E1,4.9261288E1,5.8124195E1,3.2978268E1,1.4963889E2,6.5956535E0,3.998615E1,4.0604492E1],"tree_param":{"num_deleted":"0","num_feature":"59","num_nodes":"63","size_leaf_vector":"1"}},{"base_weights":[2.9515932E-6,2.0663074E-1,-5.5603933E-1,3.3191645E-1,-6.389556E-1,-7.71167E-1,-1.3420771E-1,4.6077955E-1,2.6853206E-2,-4.1591135E-1,-9.463492E-1,-4.333754E-1,-1.0185236E0,-5.0422116E-3,-7.353577E-1,5.3258026E-1,-3.5544962E-1,-2.816604E-1,2.0976809E-1,2.9429153E-2,-6.3374704E-1,-1.154833E0,-7.367755E-1,-2.0587812E-1,-9.240572E-1,-1.0827123E0,-3.299277E-1,2.7775893E-1,-2.8232497E-1,-9.5573515E-1,-3.0644855E-1,5.9679378E-2,1.8256808E-3,-3.0383219E-3,-8.23905E-2,-5.499347E-2,1.1185146E-2,2.358382E-2,-6.876316E-2,2.4136556E-2,-5.7434767E-2,-8.366179E-2,-1.240504E-2,-1.18934214E-1,-3.7334338E-2,-4.7547247E-2,-1.0873896E-1,8.057757E-3,-6.302599E-2,-1.0485279E-1,-3.3930942E-2,-8.757333E-2,-1.219841E-1,-1.1323007E-2,-9.024915E-2,3.5297465E-2,-7.677703E-2,-5.127446E-2,1.234217E-3,-1.0852971E-1,3.459767E-2,-6.984441E-4,-8.103853E-2],"categories":[],"categories_nodes":[],"categories_segments":[],"categories_sizes":[],"default_left":[0,0,0,0,0,0,0,0,0,0,0,0,0,0,0,0,0,0,0,0,0,0,0,0,0,0,0,0,0,0,0,0,0,0,0,0,0,0,0,0,0,0,0,0,0,0,0,0,0,0,0,0,0,0,0,0,0,0,0,0,0,0,0],"id":1,"left_children":[1,3,5,7,9,11,13,15,17,19,21,23,25,27,29,31,33,35,37,39,41,43,45,47,49,51,53,55,57,59,61,-1,-1,-1,-1,-1,-1,-1,-1,-1,-1,-1,-1,-1,-1,-1,-1,-1,-1,-1,-1,-1,-1,-1,-1,-1,-1,-1,-1,-1,-1,-1,-1],"loss_changes":[1.847974E3,1.2425217E3,3.9534204E2,4.0151294E2,1.0338165E2,2.406709E2,1.1436898E2,4.2101782E2,1.7129007E2,8.528392E1,2.6923157E1,1.3617383E2,7.3239746E1,9.5233025E1,2.4330627E1,2.179801E2,8.8477196E1,1.193363E2,4.4741386E1,3.7203983E1,6.0931107E1,8.102295E0,2.87789E1,1.0166961E2,2.7787903E1,4.2149414E1,1.769209E1,4.7553974E1,4.1641125E1,2.9318634E1,1.3559951E1,0E0,0E0,0E0,0E0,0E0,0E0,0E0,0E0,0E0,0E0,0E0,0E0,0E0,0E0,0E0,0E0,0E0,0E0,0E0,0E0,0E0,0E0,0E0,0E0,0E0,0E0,0E0,0E0,0E0,0E0,0E0,0E0],"parents":[2147483647,0,0,1,1,2,2,3,3,4,4,5,5,6,6,7,7,8,8,9,9,10,10,11,11,12,12,13,13,14,14,15,15,16,16,17,17,18,18,19,19,20,20,21,21,22,22,23,23,24,24,25,25,26,26,27,27,28,28,29,29,30,30],"right_children":[2,4,6,8,10,12,14,16,18,20,22,24,26,28,30,32,34,36,38,40,42,44,46,48,50,52,54,56,58,60,62,-1,-1,-1,-1,-1,-1,-1,-1,-1,-1,-1,-1,-1,-1,-1,-1,-1,-1,-1,-1,-1,-1,-1,-1,-1,-1,-1,-1,-1,-1,-1,-1],"split_conditions":[3.6913487E-1,1.1273623E0,5.9413362E-2,-1.7080139E-1,1.548532E-1,8.493884E-1,1.8098955E0,8.650335E-1,-3.7677357E-1,-3.9384252E-1,-1.7080139E-1,-2.1014334E-1,1.2918976E-1,-2.1014334E-1,1.1273623E0,1.8227118E0,1.329817E0,1.19489655E-2,2.7985218E0,2.6224906E0,-3.949411E-2,1.673281E0,1.9172989E0,4.2621216E-1,-1.007614E-1,1.3296419E0,1.8098955E0,2.764884E0,8.425759E-1,1.623558E0,3.2506561E0,5.9679378E-2,1.8256808E-3,-3.0383219E-3,-8.23905E-2,-5.499347E-2,1.1185146E-2,2.358382E-2,-6.876316E-2,2.4136556E-2,-5.7434767E-2,-8.366179E-2,-1.240504E-2,-1.18934214E-1,-3.7334338E-2,-4.7547247E-2,-1.0873896E-1,8.057757E-3,-6.302599E-2,-1.0485279E-1,-3.3930942E-2,-8.757333E-2,-1.219841E-1,-1.1323007E-2,-9.024915E-2,3.5297465E-2,-7.677703E-2,-5.127446E-2,1.234217E-3,-1.0852971E-1,3.459767E-2,-6.984441E-4,-8.103853E-2],"split_indices":[32,12,12,15,19,32,32,18,31,31,15,26,18,26,12,38,19,12,19,12,26,38,19,38,18,32,32,12,12,19,32,0,0,0,0,0,0,0,0,0,0,0,0,0,0,0,0,0,0,0,0,0,0,0,0,0,0,0,0,0,0,0,0],"split_type":[0,0,0,0,0,0,0,0,0,0,0,0,0,0,0,0,0,0,0,0,0,0,0,0,0,0,0,0,0,0,0,0,0,0,0,0,0,0,0,0,0,0,0,0,0,0,0,0,0,0,0,0,0,0,0,0,0,0,0,0,0,0,0],"sum_hessian":[1.6082194E4,1.1725555E4,4.3566396E3,1.0212965E4,1.5125894E3,2.8846729E3,1.4719669E3,7.1796616E3,3.0333032E3,8.779231E2,6.3466626E2,1.2205856E3,1.6640873E3,1.212461E3,2.5950586E2,6.5994775E3,5.801843E2,1.1288265E3,1.9044766E3,2.8865845E2,5.8926465E2,3.1589938E2,3.1876685E2,8.349111E2,3.8567444E2,1.5216697E3,1.4241757E2,6.002566E2,6.122044E2,1.7061435E2,8.88915E1,5.8668394E3,7.3263806E2,3.4314032E2,2.3704402E2,6.709875E2,4.5783905E2,1.8514285E3,5.3048157E1,2.1410428E2,7.455417E1,4.210399E2,1.682248E2,3.0203995E2,1.3859428E1,1.8399586E2,1.34771E2,4.9893942E2,3.3597165E2,3.1733313E2,6.834132E1,6.093369E2,9.123327E2,1.0418467E2,3.8232906E1,5.6058997E2,3.966664E1,3.4314032E2,2.690641E2,1.5532118E2,1.5293162E1,5.6393536E1,3.249797E1],"tree_param":{"num_deleted":"0","num_feature":"59","num_nodes":"63","size_leaf_vector":"1"}},{"base_weights":[-1.4538879E-6,2.7996776E-1,-3.001533E-1,4.8223427E-1,-1.1532217E-1,-4.4444224E-1,4.239724E-2,5.9308094E-1,-3.5678697E-1,-2.8416675E-1,7.39397E-2,-5.053349E-1,3.6943814E-1,2.831504E-1,-2.9914135E-1,7.4078363E-1,6.7448616E-2,-4.0783086E-1,5.846224E-1,-3.8859415E-1,5.2905906E-2,2.3942822E-1,-2.2411212E-1,-5.4111004E-1,-4.4209343E-1,1.2463921E0,-1.8591574E-1,5.011232E-1,-1.3315304E-1,-1.8362449E-1,-4.3297496E-1,8.574731E-2,5.2314486E-2,-1.9764625E-2,4.347629E-2,-1.3835101E-2,-5.160004E-2,1.0687617E-1,-3.6203023E-2,-4.6185944E-2,-1.336241E-2,-8.655683E-3,6.005586E-2,3.8386147E-2,-4.0152883E-3,6.9022864E-2,-2.446209E-2,-5.5003792E-2,-2.7157113E-2,-4.0766206E-2,-5.5027205E-2,1.3332792E-1,-2.8152568E-2,1.1377242E-2,-3.9628122E-2,4.369367E-2,1.16289094E-1,-3.0797547E-2,1.5602744E-2,-2.3890538E-2,5.5800807E-2,-4.5364585E-2,1.6025191E-2],"categories":[],"categories_nodes":[],"categories_segments":[],"categories_sizes":[],"default_left":[0,0,0,0,0,0,0,0,0,0,0,0,0,0,0,0,0,0,0,0,0,0,0,0,0,0,0,0,0,0,0,0,0,0,0,0,0,0,0,0,0,0,0,0,0,0,0,0,0,0,0,0,0,0,0,0,0,0,0,0,0,0,0],"id":2,"left_children":[1,3,5,7,9,11,13,15,17,19,21,23,25,27,29,31,33,35,37,39,41,43,45,47,49,51,53,55,57,59,61,-1,-1,-1,-1,-1,-1,-1,-1,-1,-1,-1,-1,-1,-1,-1,-1,-1,-1,-1,-1,-1,-1,-1,-1,-1,-1,-1,-1,-1,-1,-1,-1],"loss_changes":[7.3348145E2,3.6113275E2,2.0822195E2,2.7806818E2,4.8895798E1,1.4708167E2,1.02816765E2,2.0486206E2,1.7021976E1,2.8480522E1,3.56616E1,6.0009155E0,1.00997154E2,6.66109E1,7.9141426E0,5.1874634E1,5.6568905E1,9.603214E0,8.808226E0,1.14717865E1,1.4725616E1,1.8779114E1,5.0115156E0,4.0790405E0,3.5078125E0,1.1042702E1,8.086317E0,1.9945404E1,1.2828528E1,1.1582161E1,3.000969E0,0E0,0E0,0E0,0E0,0E0,0E0,0E0,0E0,0E0,0E0,0E0,0E0,0E0,0E0,0E0,0E0,0E0,0E0,0E0,0E0,0E0,0E0,0E0,0E0,0E0,0E0,0E0,0E0,0E0,0E0,0E0,0E0],"parents":[2147483647,0,0,1,1,2,2,3,3,4,4,5,5,6,6,7,7,8,8,9,9,10,10,11,11,12,12,13,13,14,14,15,15,16,16,17,17,18,18,19,19,20,20,21,21,22,22,23,23,24,24,25,25,26,26,27,27,28,28,29,29,30,30],"right_children":[2,4,6,8,10,12,14,16,18,20,22,24,26,28,30,32,34,36,38,40,42,44,46,48,50,52,54,56,58,60,62,-1,-1,-1,-1,-1,-1,-1,-1,-1,-1,-1,-1,-1,-1,-1,-1,-1,-1,-1,-1,-1,-1,-1,-1,-1,-1,-1,-1,-1,-1,-1,-1],"split_conditions":[-3.7677357E-1,1.0687776E-1,-1.7080139E-1,1.8098955E0,-2.1014334E-1,1.7547888E0,-2.8472233E-1,-2.387321E-1,3.5914093E-1,8.493884E-1,1.1510944E0,-3.551543E-2,-7.949458E-1,1.5434216E-1,6.0525393E-1,-5.576238E-1,3.6913487E-1,6.109631E-1,2.7704027E0,1.8584061E0,5.443006E-1,1.548532E-1,-7.664497E-1,1.76255E-1,1.3646842E0,3.4633073E-1,-4.62695E-1,1.0561494E-1,2.5650138E-2,1.062133E0,1.5455855E0,8.574731E-2,5.2314486E-2,-1.9764625E-2,4.347629E-2,-1.3835101E-2,-5.160004E-2,1.0687617E-1,-3.6203023E-2,-4.6185944E-2,-1.336241E-2,-8.655683E-3,6.005586E-2,3.8386147E-2,-4.0152883E-3,6.9022864E-2,-2.446209E-2,-5.5003792E-2,-2.7157113E-2,-4.0766206E-2,-5.5027205E-2,1.3332792E-1,-2.8152568E-2,1.1377242E-2,-3.9628122E-2,4.369367E-2,1.16289094E-1,-3.0797547E-2,1.5602744E-2,-2.3890538E-2,5.5800807E-2,-4.5364585E-2,1.6025191E-2],"split_indices":[31,12,15,32,26,38,18,18,18,32,12,12,12,12,12,12,32,38,32,13,14,19,33,38,12,11,12,38,14,13,38,0,0,0,0,0,0,0,0,0,0,0,0,0,0,0,0,0,0,0,0,0,0,0,0,0,0,0,0,0,0,0,0],"split_type":[0,0,0,0,0,0,0,0,0,0,0,0,0,0,0,0,0,0,0,0,0,0,0,0,0,0,0,0,0,0,0,0,0,0,0,0,0,0,0,0,0,0,0,0,0,0,0,0,0,0,0,0,0,0,0,0,0,0,0,0,0,0,0],"sum_hessian":[8.726465E3,4.515066E3,4.2113994E3,2.9866187E3,1.5284475E3,2.9630203E3,1.248379E3,2.6383484E3,3.4827026E2,8.0753064E2,7.209169E2,2.757118E3,2.0590216E2,7.323271E2,5.16052E2,2.0592808E3,5.790674E2,3.3089566E2,1.7374615E1,6.1640985E2,1.9112077E2,4.6366882E2,2.5724805E2,1.7561327E3,1.0009853E3,7.935272E1,1.2654944E2,4.805248E2,2.5180226E2,2.7825317E2,2.3779884E2,1.3386233E3,7.2065753E2,3.3660074E2,2.4246664E2,9.5430725E1,2.3546494E2,1.1410195E1,5.9644203E0,4.781909E2,1.3821895E2,1.5300034E2,3.8120422E1,3.0548203E2,1.581868E2,4.9271297E0,2.523209E2,1.6988224E3,5.73103E1,7.629271E2,2.3805817E2,7.520356E1,4.149162E0,5.2383167E1,7.416627E1,4.3955182E2,4.0972973E1,1.5689018E2,9.491208E1,2.5958194E2,1.8671228E1,2.3001917E2,7.7796783E0],"tree_param":{"num_deleted":"0","num_feature":"59","num_nodes":"63","size_leaf_vector":"1"}},{"base_weights":[-2.1550027E-6,-2.5020856E-1,2.5509868E0,-4.2028925E-1,4.321161E-1,3.124686E0,1.1292728E0,-5.4721844E-1,-1.4287838E-1,6.775486E-2,1.1380969E0,2.2246702E0,3.6356385E0,5.591328E-1,2.6939857E0,-5.6981903E-1,-3.6470014E-1,-3.5451695E-1,2.0394549E-1,-3.1619114E-1,5.921111E-1,1.6926055E0,1.3125314E-1,2.5035105E0,3.780011E-1,3.736871E0,1.6367922E0,1.0837995E0,-1.8910325E-1,3.2038612E0,6.304611E-1,-5.713398E-2,-5.0465595E-2,-1.8001214E-2,-5.6857117E-2,-3.892493E-2,2.3445643E-2,5.5090662E-2,-3.8786974E-2,-4.655031E-2,2.0735962E-3,1.1470216E-1,-3.0362148E-2,1.9519643E-1,3.1804256E-2,-9.199356E-3,1.4865501E-1,2.1178313E-1,3.351393E-1,1.4801502E-1,-3.3704694E-2,3.2942986E-1,3.8605413E-1,7.4454896E-2,3.0022874E-1,3.2166615E-2,1.9992118E-1,-2.7767697E-2,1.2400737E-1,3.4334132E-1,3.0699823E-2,-4.4460785E-2,1.17117636E-1],"categories":[],"categories_nodes":[],"categories_segments":[],"categories_sizes":[],"default_left":[0,0,0,0,0,0,0,0,0,0,0,0,0,0,0,0,0,0,0,0,0,0,0,0,0,0,0,0,0,0,0,0,0,0,0,0,0,0,0,0,0,0,0,0,0,0,0,0,0,0,0,0,0,0,0,0,0,0,0,0,0,0,0],"id":3,"left_children":[1,3,5,7,9,11,13,15,17,19,21,23,25,27,29,31,33,35,37,39,41,43,45,47,49,51,53,55,57,59,61,-1,-1,-1,-1,-1,-1,-1,-1,-1,-1,-1,-1,-1,-1,-1,-1,-1,-1,-1,-1,-1,-1,-1,-1,-1,-1,-1,-1,-1,-1,-1,-1],"loss_changes":[4.7041514E3,7.790885E2,5.334116E2,1.8911707E2,3.4453717E2,2.0734619E2,1.6873912E2,1.4997192E1,1.239783E2,1.7830096E2,2.5435986E2,8.773639E1,5.4031494E1,5.5609924E1,5.1327026E1,3.6499023E-2,1.5294388E1,2.1544052E1,1.3170195E2,2.573619E1,1.8640517E2,1.04178955E2,4.946343E1,4.1775024E1,1.923296E1,2.7246094E0,1.738992E1,5.733912E1,7.8159866E0,2.5819244E1,7.084224E0,0E0,0E0,0E0,0E0,0E0,0E0,0E0,0E0,0E0,0E0,0E0,0E0,0E0,0E0,0E0,0E0,0E0,0E0,0E0,0E0,0E0,0E0,0E0,0E0,0E0,0E0,0E0,0E0,0E0,0E0,0E0,0E0],"parents":[2147483647,0,0,1,1,2,2,3,3,4,4,5,5,6,6,7,7,8,8,9,9,10,10,11,11,12,12,13,13,14,14,15,15,16,16,17,17,18,18,19,19,20,20,21,21,22,22,23,23,24,24,25,25,26,26,27,27,28,28,29,29,30,30],"right_children":[2,4,6,8,10,12,14,16,18,20,22,24,26,28,30,32,34,36,38,40,42,44,46,48,50,52,54,56,58,60,62,-1,-1,-1,-1,-1,-1,-1,-1,-1,-1,-1,-1,-1,-1,-1,-1,-1,-1,-1,-1,-1,-1,-1,-1,-1,-1,-1,-1,-1,-1,-1,-1],"split_conditions":[1.3296419E0,3.6913487E-1,1.3060996E-1,-1.7080139E-1,-1.6748103E-1,1.8098955E0,2.7704027E0,1.1652158E0,-1.1111866E-1,3.039505E-1,2.9673535E-1,7.4233514E-1,3.5914093E-1,9.849691E-1,1.7681316E0,6.8975395E-1,-3.810408E-1,9.9404955E-1,3.6793193E-1,8.493884E-1,-4.389628E-1,-8.780935E-3,2.6585978E-1,-1.7080139E-1,8.319953E-2,1.8168885E-1,2.7704027E0,3.1682001E-3,2.0176609E0,1.623558E0,5.865108E-1,-5.713398E-2,-5.0465595E-2,-1.8001214E-2,-5.6857117E-2,-3.892493E-2,2.3445643E-2,5.5090662E-2,-3.8786974E-2,-4.655031E-2,2.0735962E-3,1.1470216E-1,-3.0362148E-2,1.9519643E-1,3.1804256E-2,-9.199356E-3,1.4865501E-1,2.1178313E-1,3.351393E-1,1.4801502E-1,-3.3704694E-2,3.2942986E-1,3.8605413E-1,7.4454896E-2,3.0022874E-1,3.2166615E-2,1.9992118E-1,-2.7767697E-2,1.2400737E-1,3.4334132E-1,3.0699823E-2,-4.4460785E-2,1.17117636E-1],"split_indices":[32,32,12,15,26,32,32,38,32,38,12,19,18,12,12,38,31,38,12,32,12,18,13,15,18,38,32,26,13,19,38,0,0,0,0,0,0,0,0,0,0,0,0,0,0,0,0,0,0,0,0,0,0,0,0,0,0,0,0,0,0,0,0],"split_type":[0,0,0,0,0,0,0,0,0,0,0,0,0,0,0,0,0,0,0,0,0,0,0,0,0,0,0,0,0,0,0,0,0,0,0,0,0,0,0,0,0,0,0,0,0,0,0,0,0,0,0,0,0,0,0,0,0,0,0,0,0,0,0],"sum_hessian":[7.368116E3,6.7108076E3,6.573084E2,5.372106E3,1.338702E3,4.6747284E2,1.8983557E2,3.6850435E3,1.6870624E3,8.837098E2,4.5499228E2,1.7122424E2,2.962486E2,1.4013237E2,4.97032E1,3.277127E3,4.0791656E2,1.0477084E3,6.3935394E2,5.1038837E2,3.7332138E2,2.9296423E2,1.6202805E2,1.4845273E2,2.2771511E1,2.8114056E2,1.5108021E1,8.210881E1,5.802356E1,3.9412228E1,1.0290971E1,3.194799E3,8.232777E1,2.1501561E2,1.9290097E2,9.896849E2,5.802356E1,4.0309952E2,2.3625443E2,3.5339633E2,1.5699205E2,2.3034259E2,1.429788E2,2.4610747E2,4.6856762E1,1.399134E2,2.211464E1,1.04442406E2,4.4010323E1,8.539316E0,1.4232194E1,6.7438705E1,2.1370186E2,1.0072014E1,5.036007E0,4.5543022E1,3.6565792E1,5.5396076E1,2.627482E0,3.6346832E1,3.0653956E0,3.5033092E0,6.7876616E0],"tree_param":{"num_deleted":"0","num_feature":"59","num_nodes":"63","size_leaf_vector":"1"}},{"base_weights":[-2.483853E-3,-3.4020376E-1,1.4703635E0,-4.616211E-1,7.826199E-1,8.334058E-1,2.0129688E0,-4.8620212E-1,7.401493E-1,1.8250895E-1,1.3614E0,2.5513965E-1,1.634455E0,1.4764272E0,2.391013E0,-5.2471393E-1,-1.3313043E-1,1.1251833E0,-4.296544E-1,-1.3214944E-1,1.4128256E0,7.711193E-1,2.0280788E0,-1.22211576E-1,1.4776607E0,8.304408E-1,2.179608E0,1.9206871E0,6.921012E-1,2.6032422E0,1.9910368E0,-5.4752775E-2,-3.5736233E-2,-4.8296463E-2,3.333762E-2,2.5226125E-1,7.021353E-2,-5.030926E-2,5.719201E-2,1.2961074E-2,-4.408735E-2,3.0921826E-2,1.9748329E-1,1.1923025E-1,-2.7969468E-2,2.4702589E-1,1.2883338E-1,1.6984325E-2,-4.1091524E-2,1.8405686E-1,2.8903116E-2,3.9611988E-2,1.7775965E-1,2.3421371E-1,8.531501E-2,1.5471373E-1,2.5875553E-1,1.1967823E-2,2.227193E-1,2.6391178E-1,4.3655E-2,1.4330906E-1,2.4745798E-1],"categories":[],"categories_nodes":[],"categories_segments":[],"categories_sizes":[],"default_left":[0,0,0,0,0,0,0,0,0,0,0,0,0,0,0,0,0,0,0,0,0,0,0,0,0,0,0,0,0,0,0,0,0,0,0,0,0,0,0,0,0,0,0,0,0,0,0,0,0,0,0,0,0,0,0,0,0,0,0,0,0,0,0],"id":4,"left_children":[1,3,5,7,9,11,13,15,17,19,21,23,25,27,29,31,33,35,37,39,41,43,45,47,49,51,53,55,57,59,61,-1,-1,-1,-1,-1,-1,-1,-1,-1,-1,-1,-1,-1,-1,-1,-1,-1,-1,-1,-1,-1,-1,-1,-1,-1,-1,-1,-1,-1,-1,-1,-1],"loss_changes":[3.4555337E3,7.707958E2,4.4617773E2,1.5102942E2,1.9142273E2,2.764902E2,1.3825757E2,6.7900635E1,4.6709E1,1.0551744E2,1.0892175E2,1.6088391E2,1.0795734E2,1.00262085E2,2.9490479E1,1.7010986E1,8.0612625E1,4.4039703E1,2.210301E0,1.7640326E1,3.3811897E1,6.6953186E1,3.9743713E1,2.2592194E1,3.4943634E1,4.158751E1,3.004364E1,4.2222717E1,9.3748856E1,1.9339111E1,3.580371E1,0E0,0E0,0E0,0E0,0E0,0E0,0E0,0E0,0E0,0E0,0E0,0E0,0E0,0E0,0E0,0E0,0E0,0E0,0E0,0E0,0E0,0E0,0E0,0E0,0E0,0E0,0E0,0E0,0E0,0E0,0E0,0E0],"parents":[2147483647,0,0,1,1,2,2,3,3,4,4,5,5,6,6,7,7,8,8,9,9,10,10,11,11,12,12,13,13,14,14,15,15,16,16,17,17,18,18,19,19,20,20,21,21,22,22,23,23,24,24,25,25,26,26,27,27,28,28,29,29,30,30],"right_children":[2,4,6,8,10,12,14,16,18,20,22,24,26,28,30,32,34,36,38,40,42,44,46,48,50,52,54,56,58,60,62,-1,-1,-1,-1,-1,-1,-1,-1,-1,-1,-1,-1,-1,-1,-1,-1,-1,-1,-1,-1,-1,-1,-1,-1,-1,-1,-1,-1,-1,-1,-1,-1],"split_conditions":[9.1377246E-1,8.190433E-1,-3.7250632E-1,2.8535252E0,-3.4263566E-1,1.548532E-1,1.4596131E0,3.9166412E-1,1.09823965E-1,2.7985218E0,1.329817E0,2.551294E0,1.5070775E0,-1.7080139E-1,-1.8881218E-1,-8.780935E-3,-3.4263566E-1,7.967086E-1,2.4141963E0,-1.7080139E-1,2.2447405E0,-1.7080139E-1,-1.7080139E-1,3.6913487E-1,8.493884E-1,2.0607796E0,1.3296419E0,1.548532E-1,1.329817E0,6.9545546E0,2.2427757E0,-5.4752775E-2,-3.5736233E-2,-4.8296463E-2,3.333762E-2,2.5226125E-1,7.021353E-2,-5.030926E-2,5.719201E-2,1.2961074E-2,-4.408735E-2,3.0921826E-2,1.9748329E-1,1.1923025E-1,-2.7969468E-2,2.4702589E-1,1.2883338E-1,1.6984325E-2,-4.1091524E-2,1.8405686E-1,2.8903116E-2,3.9611988E-2,1.7775965E-1,2.3421371E-1,8.531501E-2,1.5471373E-1,2.5875553E-1,1.1967823E-2,2.227193E-1,2.6391178E-1,4.3655E-2,1.4330906E-1,2.4745798E-1],"split_indices":[12,18,31,31,31,19,12,12,26,19,19,12,12,15,26,18,31,13,16,15,18,15,15,32,32,18,32,19,19,13,12,0,0,0,0,0,0,0,0,0,0,0,0,0,0,0,0,0,0,0,0,0,0,0,0,0,0,0,0,0,0,0,0],"split_type":[0,0,0,0,0,0,0,0,0,0,0,0,0,0,0,0,0,0,0,0,0,0,0,0,0,0,0,0,0,0,0,0,0,0,0,0,0,0,0,0,0,0,0,0,0,0,0,0,0,0,0,0,0,0,0,0,0,0,0,0,0,0,0],"sum_hessian":[6.9450503E3,5.6502354E3,1.2948147E3,5.0993975E3,5.508382E2,5.967882E2,6.980264E2,4.9977686E3,1.01629E2,2.7108145E2,2.7975674E2,3.473556E2,2.4943262E2,2.90557E2,4.0746945E2,4.5058047E3,4.9196347E2,7.6490685E1,2.5138311E1,2.1658224E2,5.4499187E1,1.4952405E2,1.3023268E2,2.6611487E2,8.12407E1,1.0180694E2,1.4762567E2,1.845659E2,1.0599111E2,2.6261578E2,1.4485367E2,3.963253E3,5.425519E2,2.8111758E2,2.1084589E2,1.6621834E1,5.986885E1,2.3884718E1,1.2535945E0,1.1751993E2,9.9062325E1,1.8912039E1,3.558715E1,1.0664455E2,4.28795E1,8.004607E1,5.018662E1,1.3249432E2,1.3362056E2,6.181814E1,1.9422565E1,7.077231E1,3.1034626E1,1.3082962E2,1.6796057E1,1.204277E2,6.413821E1,7.798799E1,2.8003117E1,2.5812378E2,4.492003E0,6.9092995E1,7.5760666E1],"tree_param":{"num_deleted":"0","num_feature":"59","num_nodes":"63","size_leaf_vector":"1"}},{"base_weights":[2.057319E-3,1.9252081E-1,-4.978712E-1,3.227121E-1,-4.943597E-1,-6.7788243E-1,-9.617768E-2,4.5092332E-1,1.9015206E-2,-2.8053954E-1,-8.057063E-1,-3.7947968E-1,-8.9480865E-1,2.144289E-2,-6.2693566E-1,4.9616298E-1,-5.941852E-1,-2.796283E-1,2.0198366E-1,-9.3651146E-2,-7.232153E-1,-8.8414836E-1,2.896688E-2,-1.6657163E-1,-8.138365E-1,-9.540231E-1,-2.9003885E-1,2.599162E-1,-2.0714338E-1,-8.2673013E-1,-2.7060813E-1,5.559014E-2,2.4739616E-3,-1.9641716E-2,-8.047591E-2,-4.681847E-2,1.8452529E-2,2.1986356E-2,-8.014692E-2,-3.518383E-2,3.153902E-2,-9.3123965E-2,-4.3962203E-2,-1.0595578E-1,-6.802674E-2,5.051751E-2,-9.6792266E-2,9.396581E-3,-5.499847E-2,-8.809282E-2,2.1943967E-3,-7.742294E-2,-1.0634335E-1,-9.0949265E-3,-8.051994E-2,3.3671807E-2,-6.8773806E-2,-4.1173186E-2,2.3146493E-3,-9.5409214E-2,3.4690384E-2,-8.798867E-5,-7.139843E-2],"categories":[],"categories_nodes":[],"categories_segments":[],"categories_sizes":[],"default_left":[0,0,0,0,0,0,0,0,0,0,0,0,0,0,0,0,0,0,0,0,0,0,0,0,0,0,0,0,0,0,0,0,0,0,0,0,0,0,0,0,0,0,0,0,0,0,0,0,0,0,0,0,0,0,0,0,0,0,0,0,0,0,0],"id":5,"left_children":[1,3,5,7,9,11,13,15,17,19,21,23,25,27,29,31,33,35,37,39,41,43,45,47,49,51,53,55,57,59,61,-1,-1,-1,-1,-1,-1,-1,-1,-1,-1,-1,-1,-1,-1,-1,-1,-1,-1,-1,-1,-1,-1,-1,-1,-1,-1,-1,-1,-1,-1,-1,-1],"loss_changes":[1.5284174E3,1.0395946E3,3.201433E2,3.804859E2,1.2309619E2,1.975951E2,8.563525E1,3.251643E2,1.5861963E2,9.0917274E1,4.9372223E1,1.1905968E2,6.3104736E1,6.1308083E1,1.7491623E1,1.8547827E2,2.3759087E1,9.6606964E1,3.247087E1,8.189979E1,1.8841736E1,2.3918762E1,3.1685503E1,8.657889E1,2.377829E1,3.087915E1,1.6262596E1,4.0290195E1,2.7067226E1,2.409069E1,1.0868422E1,0E0,0E0,0E0,0E0,0E0,0E0,0E0,0E0,0E0,0E0,0E0,0E0,0E0,0E0,0E0,0E0,0E0,0E0,0E0,0E0,0E0,0E0,0E0,0E0,0E0,0E0,0E0,0E0,0E0,0E0,0E0,0E0],"parents":[2147483647,0,0,1,1,2,2,3,3,4,4,5,5,6,6,7,7,8,8,9,9,10,10,11,11,12,12,13,13,14,14,15,15,16,16,17,17,18,18,19,19,20,20,21,21,22,22,23,23,24,24,25,25,26,26,27,27,28,28,29,29,30,30],"right_children":[2,4,6,8,10,12,14,16,18,20,22,24,26,28,30,32,34,36,38,40,42,44,46,48,50,52,54,56,58,60,62,-1,-1,-1,-1,-1,-1,-1,-1,-1,-1,-1,-1,-1,-1,-1,-1,-1,-1,-1,-1,-1,-1,-1,-1,-1,-1,-1,-1,-1,-1,-1,-1],"split_conditions":[3.6913487E-1,9.612369E-1,1.3060996E-1,-1.7080139E-1,1.9579892E0,8.493884E-1,1.8098955E0,1.2329553E0,-3.7677357E-1,9.1102374E-1,3.5571222E0,-2.1014334E-1,1.2918976E-1,-2.1014334E-1,1.1273623E0,1.8227118E0,-3.4263566E-1,-1.4675164E-1,3.3860037E0,-1.7080139E-1,-1.6748103E-1,-1.7080139E-1,1.2789146E0,4.2621216E-1,1.0360761E0,1.76255E-1,1.8098955E0,2.764884E0,8.425759E-1,1.623558E0,3.2506561E0,5.559014E-2,2.4739616E-3,-1.9641716E-2,-8.047591E-2,-4.681847E-2,1.8452529E-2,2.1986356E-2,-8.014692E-2,-3.518383E-2,3.153902E-2,-9.3123965E-2,-4.3962203E-2,-1.0595578E-1,-6.802674E-2,5.051751E-2,-9.6792266E-2,9.396581E-3,-5.499847E-2,-8.809282E-2,2.1943967E-3,-7.742294E-2,-1.0634335E-1,-9.0949265E-3,-8.051994E-2,3.3671807E-2,-6.8773806E-2,-4.1173186E-2,2.3146493E-3,-9.5409214E-2,3.4690384E-2,-8.798867E-5,-7.139843E-2],"split_indices":[32,12,12,15,12,32,32,18,31,18,13,26,18,26,12,38,31,18,19,15,26,15,31,38,19,38,32,12,12,19,32,0,0,0,0,0,0,0,0,0,0,0,0,0,0,0,0,0,0,0,0,0,0,0,0,0,0,0,0,0,0,0,0],"split_type":[0,0,0,0,0,0,0,0,0,0,0,0,0,0,0,0,0,0,0,0,0,0,0,0,0,0,0,0,0,0,0,0,0,0,0,0,0,0,0,0,0,0,0,0,0,0,0,0,0,0,0,0,0,0,0,0,0,0,0,0,0,0,0],"sum_hessian":[1.604974E4,1.1622427E4,4.427314E3,9.770968E3,1.8514587E3,3.0567864E3,1.3705276E3,6.8701313E3,2.9008364E3,1.0987697E3,7.526891E2,1.2879027E3,1.7688837E3,1.1226895E3,2.4783812E2,6.585586E3,2.845454E2,1.1018516E3,1.7989849E3,7.7344775E2,3.2532184E2,6.879744E2,6.471468E1,8.6519495E2,4.227078E2,1.6106078E3,1.5827591E2,5.493947E2,5.732947E2,1.5795302E2,8.98851E1,5.8447627E3,7.4082336E2,9.91627E1,1.853827E2,7.8354E2,3.1831165E2,1.7682583E3,3.0726587E1,4.7424432E2,2.9920343E2,1.8634694E2,1.389749E2,3.675528E2,3.204216E2,4.4128166E1,2.0586517E1,5.155932E2,3.4960175E2,3.9124673E2,3.1461052E1,6.1237335E2,9.982344E2,1.1500679E2,4.3269127E1,5.088038E2,4.0590904E1,3.0317102E2,2.7012366E2,1.4265883E2,1.5294188E1,5.6509495E1,3.3375607E1],"tree_param":{"num_deleted":"0","num_feature":"59","num_nodes":"63","size_leaf_vector":"1"}},{"base_weights":[4.6522976E-4,-2.8874534E-1,2.5163156E-1,-4.3530223E-1,4.3788087E-2,4.4461507E-1,-8.205727E-2,-4.9656215E-1,3.2568687E-1,2.6789942E-1,-2.882632E-1,5.455663E-1,-3.627201E-1,-2.541896E-1,1.0391756E-1,-5.345345E-1,-4.3030778E-1,1.0733588E0,-1.9289896E-1,4.6373415E-1,-1.2272798E-1,-1.7371169E-1,-4.2263326E-1,6.608299E-1,7.5783017E-3,-4.0836978E-1,5.269171E-1,-3.6267215E-1,9.013617E-2,2.641751E-1,-1.8521239E-1,-5.440967E-2,-2.4403518E-2,-3.931026E-2,-5.4516464E-2,1.13898985E-1,-2.6166275E-2,8.42773E-3,-3.9868433E-2,4.049656E-2,1.044475E-1,-2.9610753E-2,1.5576961E-2,-2.2870881E-2,5.196516E-2,-4.4392508E-2,1.7881325E-2,7.583671E-2,5.0263822E-2,-1.565994E-2,4.724146E-2,-9.974631E-3,-5.055629E-2,1.3117725E-2,1.596212E-1,-4.5111783E-2,-1.1280594E-2,3.242001E-2,-2.3098553E-2,3.064986E-2,-3.683513E-2,-3.1654034E-3,-3.467135E-2],"categories":[],"categories_nodes":[],"categories_segments":[],"categories_sizes":[],"default_left":[0,0,0,0,0,0,0,0,0,0,0,0,0,0,0,0,0,0,0,0,0,0,0,0,0,0,0,0,0,0,0,0,0,0,0,0,0,0,0,0,0,0,0,0,0,0,0,0,0,0,0,0,0,0,0,0,0,0,0,0,0,0,0],"id":6,"left_children":[1,3,5,7,9,11,13,15,17,19,21,23,25,27,29,31,33,35,37,39,41,43,45,47,49,51,53,55,57,59,61,-1,-1,-1,-1,-1,-1,-1,-1,-1,-1,-1,-1,-1,-1,-1,-1,-1,-1,-1,-1,-1,-1,-1,-1,-1,-1,-1,-1,-1,-1,-1,-1],"loss_changes":[6.3318E2,1.9746936E2,3.004578E2,1.312619E2,9.237526E1,2.4110992E2,5.4775856E1,6.3189087E0,8.167805E1,5.6743862E1,7.626877E0,1.6294507E2,1.3581928E1,3.322025E1,3.8172955E1,4.45224E0,3.8602448E0,7.8513107E0,7.158649E0,1.6429535E1,1.2032427E1,1.0481397E1,3.0186005E0,3.301013E1,3.5535904E1,9.357372E0,6.773282E0,1.4884377E1,1.6134184E1,1.4295563E1,7.2802896E0,0E0,0E0,0E0,0E0,0E0,0E0,0E0,0E0,0E0,0E0,0E0,0E0,0E0,0E0,0E0,0E0,0E0,0E0,0E0,0E0,0E0,0E0,0E0,0E0,0E0,0E0,0E0,0E0,0E0,0E0,0E0,0E0],"parents":[2147483647,0,0,1,1,2,2,3,3,4,4,5,5,6,6,7,7,8,8,9,9,10,10,11,11,12,12,13,13,14,14,15,15,16,16,17,17,18,18,19,19,20,20,21,21,22,22,23,23,24,24,25,25,26,26,27,27,28,28,29,29,30,30],"right_children":[2,4,6,8,10,12,14,16,18,20,22,24,26,28,30,32,34,36,38,40,42,44,46,48,50,52,54,56,58,60,62,-1,-1,-1,-1,-1,-1,-1,-1,-1,-1,-1,-1,-1,-1,-1,-1,-1,-1,-1,-1,-1,-1,-1,-1,-1,-1,-1,-1,-1,-1,-1,-1],"split_conditions":[-1.1111866E-1,-1.7080139E-1,-1.1783233E-2,1.7547888E0,-2.8472233E-1,1.8098955E0,-2.1014334E-1,-3.551543E-2,-7.949458E-1,1.5434216E-1,6.0525393E-1,-1.4675164E-1,3.5914093E-1,8.493884E-1,1.0087013E0,1.76255E-1,1.3646842E0,3.4633073E-1,-4.62695E-1,1.0561494E-1,2.5650138E-2,1.062133E0,1.5455855E0,-6.2882036E-1,-1.8881218E-1,1.8168885E-1,-5.3252774E-1,1.062133E0,9.375047E-1,2.290149E0,-1.3888778E-1,-5.440967E-2,-2.4403518E-2,-3.931026E-2,-5.4516464E-2,1.13898985E-1,-2.6166275E-2,8.42773E-3,-3.9868433E-2,4.049656E-2,1.044475E-1,-2.9610753E-2,1.5576961E-2,-2.2870881E-2,5.196516E-2,-4.4392508E-2,1.7881325E-2,7.583671E-2,5.0263822E-2,-1.565994E-2,4.724146E-2,-9.974631E-3,-5.055629E-2,1.3117725E-2,1.596212E-1,-4.5111783E-2,-1.1280594E-2,3.242001E-2,-2.3098553E-2,3.064986E-2,-3.683513E-2,-3.1654034E-3,-3.467135E-2],"split_indices":[32,15,12,38,18,32,26,12,12,12,12,18,18,32,12,38,12,11,12,38,14,13,38,12,26,38,31,13,12,32,19,0,0,0,0,0,0,0,0,0,0,0,0,0,0,0,0,0,0,0,0,0,0,0,0,0,0,0,0,0,0,0,0],"split_type":[0,0,0,0,0,0,0,0,0,0,0,0,0,0,0,0,0,0,0,0,0,0,0,0,0,0,0,0,0,0,0,0,0,0,0,0,0,0,0,0,0,0,0,0,0,0,0,0,0,0,0,0,0,0,0,0,0,0,0,0,0,0,0],"sum_hessian":[8.714689E3,4.0505042E3,4.664185E3,2.8112139E3,1.2392905E3,2.9549216E3,1.7092633E3,2.6020918E3,2.0912187E2,7.4002124E2,4.9926926E2,2.626786E3,3.281357E2,8.8747656E2,8.2178674E2,1.6495931E3,9.524987E2,8.5206085E1,1.23915794E2,4.9278455E2,2.4723668E2,2.707476E2,2.2852167E2,2.1631123E3,4.636737E2,3.1263455E2,1.5501153E1,6.7481696E2,2.1265962E2,5.287823E2,2.930045E2,1.5961796E3,5.341361E1,7.227904E2,2.2970828E2,8.13535E1,3.852585E0,5.3050934E1,7.086486E1,4.4904083E2,4.374373E1,1.5233612E2,9.490056E1,2.5147119E2,1.9276386E1,2.2096133E2,7.560345E0,1.3357357E3,8.2737646E2,3.431412E2,1.20532524E2,7.5361275E1,2.3727328E2,1.21333475E1,3.3678052E0,4.9780313E2,1.7701382E2,1.2299767E2,8.966195E1,4.9610257E2,3.26797E1,1.508087E2,1.421958E2],"tree_param":{"num_deleted":"0","num_feature":"59","num_nodes":"63","size_leaf_vector":"1"}},{"base_weights":[-2.6863567E-3,-3.2387048E-1,1.470921E0,-4.97628E-1,1.7101027E-2,9.5947164E-1,2.216467E0,-5.524208E-1,-1.6730493E-1,3.7096682E-1,-3.4228617E-1,1.2814418E0,6.2232327E-2,2.434403E0,1.107649E0,-5.641637E-1,-4.5072335E-1,1.3953733E-1,-4.569007E-1,7.085193E-1,-2.8834957E-1,-3.773883E-1,2.3044042E-1,9.5902324E-1,1.9716129E0,-4.4818732E-1,5.5699587E-1,2.4647284E0,2.0290934E-1,4.8568824E-1,2.0677278E0,-5.657787E-2,-4.951482E-2,-2.2630224E-2,-5.255733E-2,4.77706E-2,-5.6063544E-2,-5.3225607E-2,-2.820344E-2,4.5761358E-2,1.5435135E-1,-3.8320422E-2,1.7592326E-1,-3.8955614E-2,1.0159431E-1,7.599869E-3,1.7606021E-1,3.3366002E-2,1.4856015E-1,2.1065855E-1,1.2945721E-2,-5.1037736E-2,1.4235062E-2,1.0246428E-1,-2.7417421E-2,2.1796922E-1,2.5934047E-1,5.901968E-2,-4.06319E-2,-1.0339851E-2,1.0644461E-1,2.3215377E-1,-3.7129258E-3],"categories":[],"categories_nodes":[],"categories_segments":[],"categories_sizes":[],"default_left":[0,0,0,0,0,0,0,0,0,0,0,0,0,0,0,0,0,0,0,0,0,0,0,0,0,0,0,0,0,0,0,0,0,0,0,0,0,0,0,0,0,0,0,0,0,0,0,0,0,0,0,0,0,0,0,0,0,0,0,0,0,0,0],"id":7,"left_children":[1,3,5,7,9,11,13,15,17,19,21,23,25,27,29,31,33,35,37,39,41,43,45,47,49,51,53,55,57,59,61,-1,-1,-1,-1,-1,-1,-1,-1,-1,-1,-1,-1,-1,-1,-1,-1,-1,-1,-1,-1,-1,-1,-1,-1,-1,-1,-1,-1,-1,-1,-1,-1],"loss_changes":[3.4930828E3,3.5901483E2,5.0147852E2,7.2559204E1,2.603895E2,2.267262E2,1.2697803E2,3.8569336E0,5.0939682E1,2.2980154E2,2.0509453E1,1.26667114E2,5.2874237E1,2.9791748E1,5.2726242E1,6.329346E-2,5.950615E0,6.62711E1,3.734249E0,1.4230331E2,6.865981E1,1.6630112E1,1.3876717E1,1.298158E2,4.5230103E1,3.8599052E0,4.1583782E1,1.0541992E1,1.9129951E0,1.9172972E1,1.882071E1,0E0,0E0,0E0,0E0,0E0,0E0,0E0,0E0,0E0,0E0,0E0,0E0,0E0,0E0,0E0,0E0,0E0,0E0,0E0,0E0,0E0,0E0,0E0,0E0,0E0,0E0,0E0,0E0,0E0,0E0,0E0,0E0],"parents":[2147483647,0,0,1,1,2,2,3,3,4,4,5,5,6,6,7,7,8,8,9,9,10,10,11,11,12,12,13,13,14,14,15,15,16,16,17,17,18,18,19,19,20,20,21,21,22,22,23,23,24,24,25,25,26,26,27,27,28,28,29,29,30,30],"right_children":[2,4,6,8,10,12,14,16,18,20,22,24,26,28,30,32,34,36,38,40,42,44,46,48,50,52,54,56,58,60,62,-1,-1,-1,-1,-1,-1,-1,-1,-1,-1,-1,-1,-1,-1,-1,-1,-1,-1,-1,-1,-1,-1,-1,-1,-1,-1,-1,-1,-1,-1,-1,-1],"split_conditions":[8.493884E-1,-1.7080139E-1,1.8098955E0,1.1652158E0,-3.7463993E-1,1.7807434E-1,5.1032513E-1,3.6913487E-1,-7.00017E-1,3.4419975E-1,9.9404955E-1,-1.7080139E-1,-1.6748103E-1,1.9172989E0,3.2506561E0,6.8975395E-1,-8.4241015E-1,-3.810408E-1,3.6913487E-1,7.2235703E-1,2.0707457E0,9.730174E0,4.2825553E-1,4.2621216E-1,4.0513116E-1,2.2300003E0,1.0087013E0,2.290149E0,2.504781E0,-1.7080139E-1,2.5750263E0,-5.657787E-2,-4.951482E-2,-2.2630224E-2,-5.255733E-2,4.77706E-2,-5.6063544E-2,-5.3225607E-2,-2.820344E-2,4.5761358E-2,1.5435135E-1,-3.8320422E-2,1.7592326E-1,-3.8955614E-2,1.0159431E-1,7.599869E-3,1.7606021E-1,3.3366002E-2,1.4856015E-1,2.1065855E-1,1.2945721E-2,-5.1037736E-2,1.4235062E-2,1.0246428E-1,-2.7417421E-2,2.1796922E-1,2.5934047E-1,5.901968E-2,-4.06319E-2,-1.0339851E-2,1.0644461E-1,2.3215377E-1,-3.7129258E-3],"split_indices":[32,15,32,38,31,12,12,32,12,12,38,15,26,19,32,38,12,31,32,38,13,26,14,38,18,13,12,32,19,15,12,0,0,0,0,0,0,0,0,0,0,0,0,0,0,0,0,0,0,0,0,0,0,0,0,0,0,0,0,0,0,0,0],"split_type":[0,0,0,0,0,0,0,0,0,0,0,0,0,0,0,0,0,0,0,0,0,0,0,0,0,0,0,0,0,0,0,0,0,0,0,0,0,0,0,0,0,0,0,0,0,0,0,0,0,0,0,0,0,0,0,0,0,0,0,0,0,0,0],"sum_hessian":[7.378276E3,6.058549E3,1.3197273E3,4.013055E3,2.0454938E3,7.8410974E2,5.3561755E2,3.441516E3,5.715388E2,1.0306478E3,1.0148459E3,5.767261E2,2.0738368E2,4.466365E2,8.898105E1,3.0811885E3,3.603276E2,2.7775775E2,2.9378107E2,6.8160803E2,3.4903983E2,9.565599E2,5.828601E1,3.9471945E2,1.8200659E2,1.0212314E2,1.0526054E2,4.4054514E2,6.0913825E0,5.4913033E1,3.4068012E1,3.0037031E3,7.74853E1,9.1126945E1,2.6920065E2,1.8751143E2,9.024632E1,2.0387929E2,8.990179E1,5.253075E2,1.5630055E2,3.3436322E2,1.4676592E1,9.489928E2,7.5670686E0,5.3895878E1,4.3901324E0,1.8118185E2,2.135376E2,1.6944781E2,1.2558774E1,9.251595E1,9.607187E0,6.721188E1,3.8048653E1,1.4260164E2,2.9794348E2,3.7431161E0,2.3482664E0,2.762072E1,2.7292313E1,3.0310179E1,3.7578347E0],"tree_param":{"num_deleted":"0","num_feature":"59","num_nodes":"63","size_leaf_vector":"1"}},{"base_weights":[-4.1108807E-3,-3.6618778E-1,1.1092752E0,-4.7438195E-1,6.103881E-1,5.707997E-1,1.511324E0,-5.000012E-1,3.656431E-1,1.5097667E-1,1.1145118E0,2.0068516E-1,1.4913813E0,1.2058641E0,1.9158943E0,-5.3622156E-1,-2.851968E-1,6.7268217E-1,-4.2205107E-1,-1.2291402E-1,1.1679692E0,6.4964414E-1,1.5950929E0,-2.1373674E-1,1.094961E0,1.6580706E0,4.1906762E-1,1.5501189E0,4.4869062E-1,2.1176703E0,1.642622E0,-5.4285135E-2,-1.5607086E-2,-4.770644E-2,1.3333367E-2,1.7744978E-1,3.242297E-2,-4.9289472E-2,4.6635214E-2,1.0102539E-2,-4.3615144E-2,5.1080894E-2,1.6510403E-1,9.755349E-2,-3.0638238E-2,1.9119577E-1,9.8439425E-2,2.1750194E-3,-4.844133E-2,1.3719082E-1,1.3008836E-2,1.1775365E-1,1.9820653E-1,7.013514E-3,2.0628455E-1,1.197051E-1,1.909376E-1,-1.275518E-2,1.4867835E-1,2.169282E-1,1.2348517E-1,1.1161049E-1,1.9841157E-1],"categories":[],"categories_nodes":[],"categories_segments":[],"categories_sizes":[],"default_left":[0,0,0,0,0,0,0,0,0,0,0,0,0,0,0,0,0,0,0,0,0,0,0,0,0,0,0,0,0,0,0,0,0,0,0,0,0,0,0,0,0,0,0,0,0,0,0,0,0,0,0,0,0,0,0,0,0,0,0,0,0,0,0],"id":8,"left_children":[1,3,5,7,9,11,13,15,17,19,21,23,25,27,29,31,33,35,37,39,41,43,45,47,49,51,53,55,57,59,61,-1,-1,-1,-1,-1,-1,-1,-1,-1,-1,-1,-1,-1,-1,-1,-1,-1,-1,-1,-1,-1,-1,-1,-1,-1,-1,-1,-1,-1,-1,-1,-1],"loss_changes":[2.7889333E3,5.5188184E2,3.666809E2,1.0133777E2,1.2052359E2,2.4751817E2,1.17732666E2,3.5338013E1,3.4067543E1,7.6411545E1,5.4438477E1,1.9292096E2,3.6557312E1,1.442796E2,1.9470581E1,9.750244E0,5.3090183E1,3.8161087E1,2.7342997E0,1.52390375E1,1.7629364E1,4.014964E1,2.1610962E1,2.2709663E1,4.3860672E1,2.569574E1,1.6704948E1,4.616046E1,1.0501956E2,8.07251E0,3.0372223E1,0E0,0E0,0E0,0E0,0E0,0E0,0E0,0E0,0E0,0E0,0E0,0E0,0E0,0E0,0E0,0E0,0E0,0E0,0E0,0E0,0E0,0E0,0E0,0E0,0E0,0E0,0E0,0E0,0E0,0E0,0E0,0E0],"parents":[2147483647,0,0,1,1,2,2,3,3,4,4,5,5,6,6,7,7,8,8,9,9,10,10,11,11,12,12,13,13,14,14,15,15,16,16,17,17,18,18,19,19,20,20,21,21,22,22,23,23,24,24,25,25,26,26,27,27,28,28,29,29,30,30],"right_children":[2,4,6,8,10,12,14,16,18,20,22,24,26,28,30,32,34,36,38,40,42,44,46,48,50,52,54,56,58,60,62,-1,-1,-1,-1,-1,-1,-1,-1,-1,-1,-1,-1,-1,-1,-1,-1,-1,-1,-1,-1,-1,-1,-1,-1,-1,-1,-1,-1,-1,-1,-1,-1],"split_conditions":[7.239149E-1,8.190433E-1,-3.9170888E-1,2.3627927E0,-2.6369178E-1,1.0360761E0,1.548532E-1,1.5434216E-1,-8.215641E-2,2.7985218E0,1.329817E0,2.1241145E0,1.3296419E0,-1.7080139E-1,-1.7080139E-1,1.329817E0,-1.7407979E-1,5.8436906E-1,4.13583E0,-1.7080139E-1,2.6126623E0,-1.7080139E-1,-1.7080139E-1,-1.7080139E-1,8.493884E-1,1.6008773E0,4.636233E0,1.5070775E0,1.934257E0,4.2621216E-1,1.340952E0,-5.4285135E-2,-1.5607086E-2,-4.770644E-2,1.3333367E-2,1.7744978E-1,3.242297E-2,-4.9289472E-2,4.6635214E-2,1.0102539E-2,-4.3615144E-2,5.1080894E-2,1.6510403E-1,9.755349E-2,-3.0638238E-2,1.9119577E-1,9.8439425E-2,2.1750194E-3,-4.844133E-2,1.3719082E-1,1.3008836E-2,1.1775365E-1,1.9820653E-1,7.013514E-3,2.0628455E-1,1.197051E-1,1.909376E-1,-1.275518E-2,1.4867835E-1,2.169282E-1,1.2348517E-1,1.1161049E-1,1.9841157E-1],"split_indices":[12,18,31,31,31,19,19,12,26,19,19,12,32,15,15,19,31,13,31,15,18,15,15,15,32,18,18,12,12,38,12,0,0,0,0,0,0,0,0,0,0,0,0,0,0,0,0,0,0,0,0,0,0,0,0,0,0,0,0,0,0,0,0],"split_type":[0,0,0,0,0,0,0,0,0,0,0,0,0,0,0,0,0,0,0,0,0,0,0,0,0,0,0,0,0,0,0,0,0,0,0,0,0,0,0,0,0,0,0,0,0,0,0,0,0,0,0,0,0,0,0,0,0,0,0,0,0,0,0],"sum_hessian":[6.916167E3,5.219454E3,1.6967129E3,4.6993325E3,5.201216E2,7.263334E2,9.703796E2,4.560646E3,1.3868672E2,2.7280865E2,2.4731291E2,5.189218E2,2.0741154E2,5.551836E2,4.1519598E2,3.90131E3,6.593359E2,9.989442E1,3.879231E1,2.156186E2,5.7190052E1,1.2690707E2,1.2040585E2,3.551162E2,1.638056E2,1.7903465E2,2.8376886E1,3.809393E2,1.742443E2,2.349596E2,1.8023637E2,3.834017E3,6.72928E1,4.5198972E2,2.0734619E2,2.3018099E1,7.687631E1,3.6339676E1,2.4526322E0,1.26126114E2,8.949249E1,2.510082E1,3.208923E1,9.4629364E1,3.2277702E1,7.787114E1,4.2534714E1,1.9039413E2,1.6472208E2,1.26946365E2,3.6859234E1,7.396604E1,1.0506862E2,2.4268057E1,4.1088285E0,1.943094E2,1.8662988E2,1.1261124E2,6.163306E1,2.2060524E2,1.4354347E1,7.2588005E1,1.0764838E2],"tree_param":{"num_deleted":"0","num_feature":"59","num_nodes":"63","size_leaf_vector":"1"}},{"base_weights":[3.1228582E-3,1.8006615E-1,-4.530956E-1,3.0140132E-1,-4.4474548E-1,-6.2549293E-1,-1.0582324E-1,4.230409E-1,1.8930566E-2,-2.5200504E-1,-7.2328156E-1,-4.620856E-1,-9.320545E-1,1.7086314E-3,-5.9022033E-1,4.839888E-1,-2.6882046E-1,-2.5226602E-1,1.8771324E-1,-5.852338E-2,-6.1585987E-1,-7.9499006E-1,4.8927777E-2,-5.7624316E-1,1.1118966E-1,-9.675738E-1,-4.0713695E-1,2.4330702E-1,-2.2637478E-1,-7.668116E-1,-2.3953937E-1,5.4705918E-2,7.591665E-4,-3.1467415E-3,-7.4965976E-2,-4.0735632E-2,2.484947E-2,2.0457394E-2,-7.380711E-2,-2.9286131E-2,3.3088494E-2,-8.4997736E-2,-3.778796E-2,-9.581147E-2,-6.0576286E-2,4.9999338E-2,-8.7943435E-2,-3.9514598E-2,-8.2652025E-2,3.1238347E-2,-4.626075E-2,-9.781217E-2,-7.999634E-2,-5.4513104E-2,2.9157111E-2,3.10026E-2,-6.311312E-2,-4.2231698E-2,2.933042E-3,-8.737687E-2,3.4925845E-2,5.4611167E-4,-6.383206E-2],"categories":[],"categories_nodes":[],"categories_segments":[],"categories_sizes":[],"default_left":[0,0,0,0,0,0,0,0,0,0,0,0,0,0,0,0,0,0,0,0,0,0,0,0,0,0,0,0,0,0,0,0,0,0,0,0,0,0,0,0,0,0,0,0,0,0,0,0,0,0,0,0,0,0,0,0,0,0,0,0,0,0,0],"id":9,"left_children":[1,3,5,7,9,11,13,15,17,19,21,23,25,27,29,31,33,35,37,39,41,43,45,47,49,51,53,55,57,59,61,-1,-1,-1,-1,-1,-1,-1,-1,-1,-1,-1,-1,-1,-1,-1,-1,-1,-1,-1,-1,-1,-1,-1,-1,-1,-1,-1,-1,-1,-1,-1,-1],"loss_changes":[1.2869026E3,8.709616E2,2.66656E2,3.3051117E2,1.0011917E2,1.4869775E2,7.704767E1,2.8365833E2,1.3263171E2,7.780875E1,4.2320435E1,1.2727701E2,1.8886475E1,6.6811386E1,1.6456924E1,1.8567908E2,6.2177753E1,8.6430374E1,2.8028713E1,6.607265E1,2.106041E1,2.0988098E1,2.8003149E1,7.315399E1,3.750712E1,9.2858887E-1,6.644499E0,3.454581E1,3.1260471E1,2.158461E1,8.938299E0,0E0,0E0,0E0,0E0,0E0,0E0,0E0,0E0,0E0,0E0,0E0,0E0,0E0,0E0,0E0,0E0,0E0,0E0,0E0,0E0,0E0,0E0,0E0,0E0,0E0,0E0,0E0,0E0,0E0,0E0,0E0,0E0],"parents":[2147483647,0,0,1,1,2,2,3,3,4,4,5,5,6,6,7,7,8,8,9,9,10,10,11,11,12,12,13,13,14,14,15,15,16,16,17,17,18,18,19,19,20,20,21,21,22,22,23,23,24,24,25,25,26,26,27,27,28,28,29,29,30,30],"right_children":[2,4,6,8,10,12,14,16,18,20,22,24,26,28,30,32,34,36,38,40,42,44,46,48,50,52,54,56,58,60,62,-1,-1,-1,-1,-1,-1,-1,-1,-1,-1,-1,-1,-1,-1,-1,-1,-1,-1,-1,-1,-1,-1,-1,-1,-1,-1,-1,-1,-1,-1,-1,-1],"split_conditions":[3.6913487E-1,9.612369E-1,5.9413362E-2,-1.7080139E-1,1.9579892E0,1.3296419E0,1.8098955E0,8.650335E-1,-3.7677357E-1,7.4233514E-1,3.5571222E0,-1.4675164E-1,3.131507E-1,-2.1014334E-1,1.1273623E0,1.8227118E0,1.738848E0,1.548532E-1,3.3860037E0,-1.7080139E-1,-1.7080139E-1,-1.7080139E-1,1.2789146E0,5.131538E-1,-6.0825262E-2,-1.007614E-1,2.504781E0,2.764884E0,8.425759E-1,1.623558E0,3.2506561E0,5.4705918E-2,7.591665E-4,-3.1467415E-3,-7.4965976E-2,-4.0735632E-2,2.484947E-2,2.0457394E-2,-7.380711E-2,-2.9286131E-2,3.3088494E-2,-8.4997736E-2,-3.778796E-2,-9.581147E-2,-6.0576286E-2,4.9999338E-2,-8.7943435E-2,-3.9514598E-2,-8.2652025E-2,3.1238347E-2,-4.626075E-2,-9.781217E-2,-7.999634E-2,-5.4513104E-2,2.9157111E-2,3.10026E-2,-6.311312E-2,-4.2231698E-2,2.933042E-3,-8.737687E-2,3.4925845E-2,5.4611167E-4,-6.383206E-2],"split_indices":[32,12,12,15,12,32,32,18,31,19,13,18,18,26,12,38,18,19,19,15,15,15,31,38,26,18,19,12,12,19,32,0,0,0,0,0,0,0,0,0,0,0,0,0,0,0,0,0,0,0,0,0,0,0,0,0,0,0,0,0,0,0,0],"split_type":[0,0,0,0,0,0,0,0,0,0,0,0,0,0,0,0,0,0,0,0,0,0,0,0,0,0,0,0,0,0,0,0,0,0,0,0,0,0,0,0,0,0,0,0,0,0,0,0,0,0,0,0,0,0,0,0,0,0,0,0,0,0,0],"sum_hessian":[1.5939841E4,1.1485731E4,4.4541094E3,9.618405E3,1.8673264E3,2.9759497E3,1.4781598E3,6.7228604E3,2.8955444E3,1.104762E3,7.6256445E2,1.9428533E3,1.0330966E3,1.2104475E3,2.6771222E2,6.1788496E3,5.440106E2,1.1105847E3,1.7849598E3,7.219971E2,3.8276483E2,6.977417E2,6.482279E1,1.6202118E3,3.2264145E2,9.668313E2,6.626526E1,5.877762E2,6.226714E2,1.7726219E2,9.045002E1,5.456335E3,7.2251465E2,3.6493564E2,1.7907498E2,8.481051E2,2.6247958E2,1.7537981E3,3.1161757E1,4.5090167E2,2.7109543E2,1.9165198E2,1.9111284E2,3.725334E2,3.2520828E2,4.393662E1,2.088617E1,9.415194E2,6.786923E2,2.3921849E2,8.3422966E1,9.0504047E2,6.1790825E1,5.5519928E1,1.0745327E1,5.4670825E2,4.1067955E1,3.521634E2,2.7050797E2,1.6195824E2,1.5303947E1,5.6638897E1,3.381112E1],"tree_param":{"num_deleted":"0","num_feature":"59","num_nodes":"63","size_leaf_vector":"1"}},{"base_weights":[1.6169634E-3,-2.7540898E-1,2.2933379E-1,-4.231311E-1,4.5050584E-2,3.8743773E-1,-1.093445E-1,-4.85816E-1,2.9485038E-1,2.5435275E-1,-2.7743548E-1,4.7300658E-1,-3.4711233E-1,-2.650845E-1,5.5011794E-2,-5.250621E-1,-4.1835177E-1,9.3739265E-1,-1.8933146E-1,4.093002E-1,-1.6803603E-1,-1.6399606E-1,-4.1274616E-1,5.718295E-1,1.7128743E-2,-3.9697102E-1,4.564764E-1,-3.6755472E-1,4.7722578E-2,1.8835904E-1,-2.0723683E-1,-5.3510655E-2,-2.2679375E-2,-3.7903365E-2,-5.38958E-2,9.914577E-2,-2.5827125E-2,7.303811E-3,-3.9142262E-2,3.5648596E-2,9.105337E-2,-3.069726E-2,5.670924E-3,-2.3410384E-2,3.4371607E-2,-4.3445557E-2,1.7772982E-2,6.618461E-2,4.0034797E-2,-1.4476969E-2,4.9948815E-2,-1.3866465E-2,-5.059972E-2,8.274983E-2,-3.6482114E-2,-4.4288047E-2,-1.04814805E-2,-5.327837E-3,7.064795E-2,3.0733367E-2,-5.388378E-3,-2.4293616E-2,3.391042E-2],"categories":[],"categories_nodes":[],"categories_segments":[],"categories_sizes":[],"default_left":[0,0,0,0,0,0,0,0,0,0,0,0,0,0,0,0,0,0,0,0,0,0,0,0,0,0,0,0,0,0,0,0,0,0,0,0,0,0,0,0,0,0,0,0,0,0,0,0,0,0,0,0,0,0,0,0,0,0,0,0,0,0,0],"id":10,"left_children":[1,3,5,7,9,11,13,15,17,19,21,23,25,27,29,31,33,35,37,39,41,43,45,47,49,51,53,55,57,59,61,-1,-1,-1,-1,-1,-1,-1,-1,-1,-1,-1,-1,-1,-1,-1,-1,-1,-1,-1,-1,-1,-1,-1,-1,-1,-1,-1,-1,-1,-1,-1,-1],"loss_changes":[5.479785E2,1.8553964E2,2.5532896E2,1.2087573E2,8.3593636E1,2.0447238E2,3.887293E1,6.3135376E0,6.73835E1,4.9215275E1,7.415371E0,1.311687E2,1.3792519E1,2.5007946E1,2.5897408E1,4.5405884E0,4.122467E0,6.2677917E0,6.6046534E0,1.4226662E1,6.332557E0,9.57873E0,2.9186935E0,3.6673523E1,4.066341E1,8.953312E0,6.491314E0,1.1578552E1,1.2896511E1,1.4159336E1,4.9530516E0,0E0,0E0,0E0,0E0,0E0,0E0,0E0,0E0,0E0,0E0,0E0,0E0,0E0,0E0,0E0,0E0,0E0,0E0,0E0,0E0,0E0,0E0,0E0,0E0,0E0,0E0,0E0,0E0,0E0,0E0,0E0,0E0],"parents":[2147483647,0,0,1,1,2,2,3,3,4,4,5,5,6,6,7,7,8,8,9,9,10,10,11,11,12,12,13,13,14,14,15,15,16,16,17,17,18,18,19,19,20,20,21,21,22,22,23,23,24,24,25,25,26,26,27,27,28,28,29,29,30,30],"right_children":[2,4,6,8,10,12,14,16,18,20,22,24,26,28,30,32,34,36,38,40,42,44,46,48,50,52,54,56,58,60,62,-1,-1,-1,-1,-1,-1,-1,-1,-1,-1,-1,-1,-1,-1,-1,-1,-1,-1,-1,-1,-1,-1,-1,-1,-1,-1,-1,-1,-1,-1,-1,-1],"split_conditions":[-1.1111866E-1,-1.7080139E-1,1.0687776E-1,1.7547888E0,-2.8472233E-1,1.8098955E0,-2.1014334E-1,-3.551543E-2,-7.949458E-1,2.9673535E-1,6.0525393E-1,-1.4675164E-1,3.5914093E-1,8.493884E-1,1.1510944E0,1.76255E-1,1.3646842E0,3.4633073E-1,-4.62695E-1,1.0561494E-1,2.5650138E-2,3.287883E-1,1.5455855E0,-5.576238E-1,-1.03487566E-1,6.109631E-1,2.7704027E0,1.9645759E0,1.8053212E0,1.548532E-1,2.290149E0,-5.3510655E-2,-2.2679375E-2,-3.7903365E-2,-5.38958E-2,9.914577E-2,-2.5827125E-2,7.303811E-3,-3.9142262E-2,3.5648596E-2,9.105337E-2,-3.069726E-2,5.670924E-3,-2.3410384E-2,3.4371607E-2,-4.3445557E-2,1.7772982E-2,6.618461E-2,4.0034797E-2,-1.4476969E-2,4.9948815E-2,-1.3866465E-2,-5.059972E-2,8.274983E-2,-3.6482114E-2,-4.4288047E-2,-1.04814805E-2,-5.327837E-3,7.064795E-2,3.0733367E-2,-5.388378E-3,-2.4293616E-2,3.391042E-2],"split_indices":[32,15,12,38,18,32,26,12,12,12,12,18,18,32,12,38,12,11,12,38,14,14,38,12,26,38,32,13,13,19,32,0,0,0,0,0,0,0,0,0,0,0,0,0,0,0,0,0,0,0,0,0,0,0,0,0,0,0,0,0,0,0,0],"split_type":[0,0,0,0,0,0,0,0,0,0,0,0,0,0,0,0,0,0,0,0,0,0,0,0,0,0,0,0,0,0,0,0,0,0,0,0,0,0,0,0,0,0,0,0,0,0,0,0,0,0,0,0,0,0,0,0,0,0,0,0,0,0,0],"sum_hessian":[8.684562E3,3.917982E3,4.7665796E3,2.681549E3,1.2364331E3,3.2494885E3,1.5170908E3,2.4665269E3,2.15022E2,7.4992365E2,4.865094E2,2.9107651E3,3.387234E2,7.786491E2,7.384417E2,1.5550955E3,9.114315E2,9.199815E1,1.2302386E2,5.4867926E2,2.0124437E2,2.6584598E2,2.2066342E2,2.3919878E3,5.187775E2,3.194115E2,1.931189E1,5.863846E2,1.9226456E2,4.8971497E2,2.4872675E2,1.5036642E3,5.14312E1,6.9047614E2,2.2095541E2,8.818159E1,3.8165686E0,5.3806675E1,6.921718E1,4.9792487E2,5.0754414E1,1.2413733E2,7.710704E1,2.3406401E2,3.1781979E1,2.1309308E2,7.570349E0,1.5667086E3,8.252791E2,3.889356E2,1.2984193E2,9.547725E1,2.2393427E2,1.3297281E1,6.014609E0,4.5519708E2,1.3118747E2,1.6750217E2,2.4762396E1,3.2823676E2,1.6147823E2,2.3399243E2,1.4734325E1],"tree_param":{"num_deleted":"0","num_feature":"59","num_nodes":"63","size_leaf_vector":"1"}},{"base_weights":[-4.813597E-3,-3.1343186E-1,1.2045099E0,-4.8966822E-1,1.3490501E-2,8.125291E-1,1.730704E0,-5.466544E-1,-1.632124E-1,3.2795513E-1,-3.3100095E-1,1.0395786E0,-1.5321972E-2,1.8313965E0,5.750987E-1,-5.589637E-1,-4.4237903E-1,1.3000594E-1,-4.511156E-1,6.1283E-1,-2.809407E-1,-3.6670107E-1,2.2857405E-1,1.1544782E0,-2.5461578E-1,2.0178142E-1,-4.5135716E-1,1.8663726E0,-2.6514206E-2,1.0118067E-1,1.6247807E0,-5.6067705E-2,-4.8607223E-2,-2.156849E-2,-5.196431E-2,4.3205995E-2,-5.5593323E-2,-5.275003E-2,-2.7896686E-2,4.422108E-2,1.4470303E-1,-3.7550766E-2,1.4723459E-1,-4.258897E-2,-7.2802156E-3,8.1639765E-3,1.5426767E-1,8.687304E-2,1.6612689E-1,-3.9892834E-2,9.203109E-2,-1.2181637E-2,6.7329034E-2,2.0474432E-2,-5.1045626E-2,1.9266371E-1,1.4695105E-1,-3.3879366E-2,1.528185E-1,1.0364727E-1,-1.6314525E-2,1.9879502E-1,-1.5415977E-2],"categories":[],"categories_nodes":[],"categories_segments":[],"categories_sizes":[],"default_left":[0,0,0,0,0,0,0,0,0,0,0,0,0,0,0,0,0,0,0,0,0,0,0,0,0,0,0,0,0,0,0,0,0,0,0,0,0,0,0,0,0,0,0,0,0,0,0,0,0,0,0,0,0,0,0,0,0,0,0,0,0,0,0],"id":11,"left_children":[1,3,5,7,9,11,13,15,17,19,21,23,25,27,29,31,33,35,37,39,41,43,45,47,49,51,53,55,57,59,61,-1,-1,-1,-1,-1,-1,-1,-1,-1,-1,-1,-1,-1,-1,-1,-1,-1,-1,-1,-1,-1,-1,-1,-1,-1,-1,-1,-1,-1,-1,-1,-1],"loss_changes":[2.7443032E3,3.3752277E2,3.0694482E2,7.0720276E1,2.2249133E2,1.614082E2,7.310828E1,3.91156E0,4.793246E1,1.864123E2,1.966391E1,1.0049628E2,1.7679087E1,3.811609E1,2.5972694E1,8.898926E-2,5.963928E0,5.8612717E1,3.6184464E0,1.0351459E2,5.740748E1,1.600309E1,1.1342873E1,8.820831E1,9.822565E0,1.9112648E1,2.5111418E0,1.0920654E1,6.2516055E0,9.381641E0,1.0821987E1,0E0,0E0,0E0,0E0,0E0,0E0,0E0,0E0,0E0,0E0,0E0,0E0,0E0,0E0,0E0,0E0,0E0,0E0,0E0,0E0,0E0,0E0,0E0,0E0,0E0,0E0,0E0,0E0,0E0,0E0,0E0,0E0],"parents":[2147483647,0,0,1,1,2,2,3,3,4,4,5,5,6,6,7,7,8,8,9,9,10,10,11,11,12,12,13,13,14,14,15,15,16,16,17,17,18,18,19,19,20,20,21,21,22,22,23,23,24,24,25,25,26,26,27,27,28,28,29,29,30,30],"right_children":[2,4,6,8,10,12,14,16,18,20,22,24,26,28,30,32,34,36,38,40,42,44,46,48,50,52,54,56,58,60,62,-1,-1,-1,-1,-1,-1,-1,-1,-1,-1,-1,-1,-1,-1,-1,-1,-1,-1,-1,-1,-1,-1,-1,-1,-1,-1,-1,-1,-1,-1,-1,-1],"split_conditions":[8.493884E-1,-1.7080139E-1,1.8098955E0,1.1652158E0,-3.7463993E-1,-1.4675164E-1,1.0561657E0,3.6913487E-1,-7.00017E-1,3.4419975E-1,9.9404955E-1,8.188437E-1,1.0030042E0,1.9172989E0,3.7309096E0,6.8975395E-1,-8.4241015E-1,-3.810408E-1,3.6913487E-1,1.8227118E0,2.0707457E0,3.6194405E-1,4.2825553E-1,-1.7080139E-1,4.084601E-1,-1.6748103E-1,-1.3888778E-1,-1.4675164E-1,3.7309096E0,-9.0003693E-1,2.5750263E0,-5.6067705E-2,-4.8607223E-2,-2.156849E-2,-5.196431E-2,4.3205995E-2,-5.5593323E-2,-5.275003E-2,-2.7896686E-2,4.422108E-2,1.4470303E-1,-3.7550766E-2,1.4723459E-1,-4.258897E-2,-7.2802156E-3,8.1639765E-3,1.5426767E-1,8.687304E-2,1.6612689E-1,-3.9892834E-2,9.203109E-2,-1.2181637E-2,6.7329034E-2,2.0474432E-2,-5.1045626E-2,1.9266371E-1,1.4695105E-1,-3.3879366E-2,1.528185E-1,1.0364727E-1,-1.6314525E-2,1.9879502E-1,-1.5415977E-2],"split_indices":[32,15,32,38,31,18,12,32,12,12,38,12,18,19,32,38,12,31,32,38,13,14,14,15,26,26,19,18,32,3,12,0,0,0,0,0,0,0,0,0,0,0,0,0,0,0,0,0,0,0,0,0,0,0,0,0,0,0,0,0,0,0,0],"split_type":[0,0,0,0,0,0,0,0,0,0,0,0,0,0,0,0,0,0,0,0,0,0,0,0,0,0,0,0,0,0,0,0,0,0,0,0,0,0,0,0,0,0,0,0,0,0,0,0,0,0,0,0,0,0,0,0,0,0,0,0,0,0,0],"sum_hessian":[7.351047E3,5.857069E3,1.4939779E3,3.8052488E3,2.05182E3,8.576374E2,6.363406E2,3.2391477E3,5.6610095E2,1.0726831E3,9.791371E2,6.728447E2,1.8479266E2,5.847998E2,5.154075E1,2.8932505E3,3.4589734E2,2.807333E2,2.8536765E2,7.3077844E2,3.419047E2,9.207398E2,5.839723E1,6.180791E2,5.476558E1,1.23726204E2,6.1066463E1,5.739896E2,1.0810214E1,3.6264282E1,1.5276469E1,2.8202683E3,7.2982056E1,8.888847E1,2.5700888E2,1.9516313E2,8.557017E1,1.9623248E2,8.913516E1,6.079619E2,1.2281652E2,3.2515277E2,1.6751925E1,7.6602094E2,1.5471892E2,5.3479618E1,4.917612E0,3.9696783E2,2.2111128E2,4.936295E1,5.402631E0,7.3811104E1,4.9915108E1,4.8424597E0,5.6224003E1,4.9497214E2,7.9017456E1,9.653317E0,1.156897E0,7.346874E0,2.8917406E1,1.2588951E1,2.6875181E0],"tree_param":{"num_deleted":"0","num_feature":"59","num_nodes":"63","size_leaf_vector":"1"}},{"base_weights":[-5.3985906E-3,-3.6637613E-1,9.3201876E-1,-4.7884035E-1,4.8064065E-1,4.9006635E-1,1.2655631E0,-4.9771068E-1,5.122693E-1,9.587173E-3,8.5927725E-1,-1.9246947E-2,9.986439E-1,1.4590732E0,8.750466E-1,-5.3583336E-1,-3.0744404E-1,1.2797652E0,1.863724E-1,-2.2929303E-1,9.7687817E-1,5.2318376E-1,1.3078665E0,-2.7634975E-1,1.0542042E0,5.8565956E-1,1.5208204E0,1.500216E0,2.7606547E-1,5.6148505E-1,1.6862016E0,-5.4116864E-2,-2.0126348E-2,-4.9598347E-2,2.0599235E-3,1.7402984E-1,3.628249E-3,-1.1695652E-2,1.1404931E-1,-3.8697194E-2,1.7437361E-2,3.0671751E-2,1.3594134E-1,7.831184E-2,-2.5481949E-2,1.5681891E-1,8.246966E-2,-4.1578542E-2,9.371995E-3,1.8421881E-1,5.0440807E-2,1.9768294E-2,1.11922264E-1,1.7932498E-1,1.2328955E-1,1.632929E-1,1.18170656E-1,-5.204778E-3,1.2239715E-1,-5.009639E-3,1.16157375E-1,1.253425E-1,1.8263495E-1],"categories":[],"categories_nodes":[],"categories_segments":[],"categories_sizes":[],"default_left":[0,0,0,0,0,0,0,0,0,0,0,0,0,0,0,0,0,0,0,0,0,0,0,0,0,0,0,0,0,0,0,0,0,0,0,0,0,0,0,0,0,0,0,0,0,0,0,0,0,0,0,0,0,0,0,0,0,0,0,0,0,0,0],"id":12,"left_children":[1,3,5,7,9,11,13,15,17,19,21,23,25,27,29,31,33,35,37,39,41,43,45,47,49,51,53,55,57,59,61,-1,-1,-1,-1,-1,-1,-1,-1,-1,-1,-1,-1,-1,-1,-1,-1,-1,-1,-1,-1,-1,-1,-1,-1,-1,-1,-1,-1,-1,-1,-1,-1],"loss_changes":[2.3216824E3,4.7209906E2,2.8056506E2,8.204889E1,1.0363924E2,2.1295186E2,8.082434E1,3.0968628E1,2.0322983E1,6.0294044E1,4.7885895E1,1.1391827E2,8.7815674E1,3.4871338E1,9.124829E1,6.2716064E0,4.4467323E1,1.3870716E1,1.7172089E1,1.3388855E1,1.2830814E1,3.7780994E1,1.5978394E1,1.7219397E1,3.3626335E1,4.7662735E1,1.1989014E1,2.7675415E1,8.0230465E0,9.6551025E1,3.8098145E0,0E0,0E0,0E0,0E0,0E0,0E0,0E0,0E0,0E0,0E0,0E0,0E0,0E0,0E0,0E0,0E0,0E0,0E0,0E0,0E0,0E0,0E0,0E0,0E0,0E0,0E0,0E0,0E0,0E0,0E0,0E0,0E0],"parents":[2147483647,0,0,1,1,2,2,3,3,4,4,5,5,6,6,7,7,8,8,9,9,10,10,11,11,12,12,13,13,14,14,15,15,16,16,17,17,18,18,19,19,20,20,21,21,22,22,23,23,24,24,25,25,26,26,27,27,28,28,29,29,30,30],"right_children":[2,4,6,8,10,12,14,16,18,20,22,24,26,28,30,32,34,36,38,40,42,44,46,48,50,52,54,56,58,60,62,-1,-1,-1,-1,-1,-1,-1,-1,-1,-1,-1,-1,-1,-1,-1,-1,-1,-1,-1,-1,-1,-1,-1,-1,-1,-1,-1,-1,-1,-1,-1,-1],"split_conditions":[6.764505E-1,7.270628E-1,-3.7250632E-1,2.8535252E0,-3.6610547E-1,1.5070775E0,-1.8881218E-1,8.314556E-2,7.967086E-1,2.6126623E0,1.623558E0,1.329817E0,4.4859415E-1,1.673281E0,1.329817E0,1.329817E0,-2.2742026E-1,-8.215641E-2,2.8670187E0,1.9172989E0,2.7985218E0,-1.7080139E-1,-1.7080139E-1,3.5914093E-1,-1.7080139E-1,2.6462228E0,-1.6748103E-1,7.967086E-1,2.4800975E0,1.4833453E0,-1.6554531E-1,-5.4116864E-2,-2.0126348E-2,-4.9598347E-2,2.0599235E-3,1.7402984E-1,3.628249E-3,-1.1695652E-2,1.1404931E-1,-3.8697194E-2,1.7437361E-2,3.0671751E-2,1.3594134E-1,7.831184E-2,-2.5481949E-2,1.5681891E-1,8.246966E-2,-4.1578542E-2,9.371995E-3,1.8421881E-1,5.0440807E-2,1.9768294E-2,1.11922264E-1,1.7932498E-1,1.2328955E-1,1.632929E-1,1.18170656E-1,-5.204778E-3,1.2239715E-1,-5.009639E-3,1.16157375E-1,1.253425E-1,1.8263495E-1],"split_indices":[12,18,31,31,31,12,26,12,13,18,19,19,19,38,19,19,31,26,13,19,19,15,15,18,15,12,26,13,12,12,31,0,0,0,0,0,0,0,0,0,0,0,0,0,0,0,0,0,0,0,0,0,0,0,0,0,0,0,0,0,0,0,0],"split_type":[0,0,0,0,0,0,0,0,0,0,0,0,0,0,0,0,0,0,0,0,0,0,0,0,0,0,0,0,0,0,0,0,0,0,0,0,0,0,0,0,0,0,0,0,0,0,0,0,0,0,0,0,0,0,0,0,0,0,0,0,0,0,0],"sum_hessian":[6.859026E3,4.9525312E3,1.906495E3,4.3724106E3,5.801202E2,8.2105347E2,1.0854415E3,4.291206E3,8.120503E1,2.5896848E2,3.211517E2,4.1071072E2,4.1034274E2,7.239641E2,3.6147742E2,3.5734062E3,7.177996E2,2.3331596E1,5.7873432E1,2.0829205E2,5.067643E1,1.8483517E2,1.3631651E2,3.319482E2,7.876252E1,2.3031245E2,1.8003029E2,6.993731E2,2.4591047E1,2.6192096E2,9.955646E1,3.5167085E3,5.6697773E1,4.5549606E2,2.6230356E2,1.6734364E1,6.597233E0,4.4578648E1,1.32947855E1,1.498137E2,5.847836E1,1.9069868E1,3.160656E1,1.3854129E2,4.629388E1,8.712798E1,4.9188538E1,2.4101466E2,9.093355E1,3.1403477E1,4.735904E1,1.341423E2,9.617015E1,8.9817955E1,9.0212326E1,4.9076144E2,2.0861165E2,1.8969824E1,5.6212244E0,1.3017224E2,1.3174872E2,2.6785738E1,7.277072E1],"tree_param":{"num_deleted":"0","num_feature":"59","num_nodes":"63","size_leaf_vector":"1"}},{"base_weights":[3.6334465E-3,1.6854922E-1,-4.154773E-1,2.8190887E-1,-4.0442142E-1,-5.660513E-1,-7.490114E-2,3.9771152E-1,1.8628841E-2,-1.5644462E-1,-5.860425E-1,-4.1447148E-1,-8.5498315E-1,2.4472547E-3,-6.3873905E-1,4.5611647E-1,-2.4642275E-1,-2.2851133E-1,1.7448877E-1,-4.1759435E-2,-6.9912237E-1,-6.4284843E-1,7.718667E-3,-5.242403E-1,1.0358156E-1,-8.766505E-1,-1.5346077E-1,2.05269E-1,-1.8693241E-1,-7.8580457E-1,-2.1191469E-1,5.173858E-2,6.155053E-4,2.0668206E-3,-6.2282443E-2,-3.934419E-2,1.8573646E-2,1.904126E-2,-6.864633E-2,5.975426E-3,-7.854893E-2,-3.91065E-2,-7.963999E-2,-8.211161E-2,-3.7999444E-2,5.1383782E-2,-8.615459E-2,-3.8037054E-2,-8.336931E-2,3.1291775E-2,-4.4958543E-2,-8.8179074E-2,2.05669E-3,1.4972291E-2,-7.819571E-2,2.7241737E-2,-5.877452E-2,-3.614744E-2,4.7875564E-3,-8.7343015E-2,9.469905E-3,1.3693402E-2,-5.42004E-2],"categories":[],"categories_nodes":[],"categories_segments":[],"categories_sizes":[],"default_left":[0,0,0,0,0,0,0,0,0,0,0,0,0,0,0,0,0,0,0,0,0,0,0,0,0,0,0,0,0,0,0,0,0,0,0,0,0,0,0,0,0,0,0,0,0,0,0,0,0,0,0,0,0,0,0,0,0,0,0,0,0,0,0],"id":13,"left_children":[1,3,5,7,9,11,13,15,17,19,21,23,25,27,29,31,33,35,37,39,41,43,45,47,49,51,53,55,57,59,61,-1,-1,-1,-1,-1,-1,-1,-1,-1,-1,-1,-1,-1,-1,-1,-1,-1,-1,-1,-1,-1,-1,-1,-1,-1,-1,-1,-1,-1,-1,-1,-1],"loss_changes":[1.0903752E3,7.3542554E2,2.2840125E2,2.8815887E2,8.4140564E1,1.3492456E2,5.9612015E1,2.4706519E2,1.1129678E2,4.9265854E1,3.640561E1,1.1537317E2,1.6006775E1,4.624396E1,1.01838E1,1.659314E2,5.4940895E1,7.642293E1,2.4422115E1,4.949354E1,3.8275986E0,4.584268E1,4.2335575E1,7.4188995E1,4.1294674E1,4.7678223E0,6.4106083E0,3.1116016E1,2.553433E1,9.516075E0,5.0975847E0,0E0,0E0,0E0,0E0,0E0,0E0,0E0,0E0,0E0,0E0,0E0,0E0,0E0,0E0,0E0,0E0,0E0,0E0,0E0,0E0,0E0,0E0,0E0,0E0,0E0,0E0,0E0,0E0,0E0,0E0,0E0,0E0],"parents":[2147483647,0,0,1,1,2,2,3,3,4,4,5,5,6,6,7,7,8,8,9,9,10,10,11,11,12,12,13,13,14,14,15,15,16,16,17,17,18,18,19,19,20,20,21,21,22,22,23,23,24,24,25,25,26,26,27,27,28,28,29,29,30,30],"right_children":[2,4,6,8,10,12,14,16,18,20,22,24,26,28,30,32,34,36,38,40,42,44,46,48,50,52,54,56,58,60,62,-1,-1,-1,-1,-1,-1,-1,-1,-1,-1,-1,-1,-1,-1,-1,-1,-1,-1,-1,-1,-1,-1,-1,-1,-1,-1,-1,-1,-1,-1,-1,-1],"split_conditions":[3.6913487E-1,9.612369E-1,1.3060996E-1,-1.7080139E-1,1.5070775E0,1.3296419E0,2.290149E0,8.650335E-1,-3.7677357E-1,1.329817E0,3.5571222E0,-1.4675164E-1,8.190433E-1,-2.1014334E-1,1.5308096E0,1.8227118E0,1.329817E0,-1.4675164E-1,3.3860037E0,3.0647533E0,1.9172989E0,-1.6748103E-1,1.2789146E0,-1.7080139E-1,-6.0825262E-2,2.21104E0,-1.7080139E-1,2.764884E0,5.9984905E-1,1.623558E0,-2.1014334E-1,5.173858E-2,6.155053E-4,2.0668206E-3,-6.2282443E-2,-3.934419E-2,1.8573646E-2,1.904126E-2,-6.864633E-2,5.975426E-3,-7.854893E-2,-3.91065E-2,-7.963999E-2,-8.211161E-2,-3.7999444E-2,5.1383782E-2,-8.615459E-2,-3.8037054E-2,-8.336931E-2,3.1291775E-2,-4.4958543E-2,-8.8179074E-2,2.05669E-3,1.4972291E-2,-7.819571E-2,2.7241737E-2,-5.877452E-2,-3.614744E-2,4.7875564E-3,-8.7343015E-2,9.469905E-3,1.3693402E-2,-5.42004E-2],"split_indices":[32,12,12,15,12,32,32,18,31,19,13,18,18,26,12,38,19,18,19,31,19,26,31,15,26,19,15,12,16,19,26,0,0,0,0,0,0,0,0,0,0,0,0,0,0,0,0,0,0,0,0,0,0,0,0,0,0,0,0,0,0,0,0],"split_type":[0,0,0,0,0,0,0,0,0,0,0,0,0,0,0,0,0,0,0,0,0,0,0,0,0,0,0,0,0,0,0,0,0,0,0,0,0,0,0,0,0,0,0,0,0,0,0,0,0,0,0,0,0,0,0,0,0,0,0,0,0,0,0],"sum_hessian":[1.5773553E4,1.131989E4,4.4536626E3,9.450633E3,1.8692567E3,3.0878252E3,1.3658374E3,6.5632876E3,2.8873455E3,7.910525E2,1.0782042E3,2.0269031E3,1.0609221E3,1.2019475E3,1.6388986E2,6.017922E3,5.453654E2,1.116498E3,1.7708475E3,6.5393256E2,1.3711993E2,9.839826E2,9.4221596E1,1.672508E3,3.5439505E2,1.0288939E3,3.2028275E1,5.803358E2,6.216117E2,1.2126579E2,4.2624077E1,5.296562E3,7.2136E2,3.195564E2,2.25809E2,7.985927E2,3.1790527E2,1.7394541E3,3.1393408E1,5.762045E2,7.772804E1,3.4112617E1,1.03007324E2,5.8506647E2,3.9891617E2,5.9807976E1,3.4413616E1,1.1432302E3,5.292778E2,2.574152E2,9.697987E1,1.02305005E3,5.843877E0,2.211964E1,9.908635E0,5.356373E2,4.4698536E1,3.5625436E2,2.653573E2,1.1029731E2,1.0968484E1,2.1007671E1,2.1616404E1],"tree_param":{"num_deleted":"0","num_feature":"59","num_nodes":"63","size_leaf_vector":"1"}},{"base_weights":[3.2064638E-3,2.0964769E-1,-2.631903E-1,3.5145548E-1,-1.0535553E-1,-4.1111454E-1,4.3597285E-2,4.2705762E-1,-3.3911157E-1,-2.564918E-1,4.912481E-2,-4.7482052E-1,2.7218533E-1,2.3829171E-1,-2.6882005E-1,5.119566E-1,1.679973E-2,-3.8885075E-1,4.1916013E-1,-3.5907775E-1,5.0192382E-2,1.6955273E-1,-1.9665207E-1,-5.1571554E-1,-4.055461E-1,8.3599365E-1,-1.8085815E-1,3.787998E-1,-1.6136411E-1,-1.5651572E-1,-4.057416E-1,5.8957595E-2,3.617699E-2,-2.2267502E-2,3.1240387E-2,-1.3537074E-2,-4.990871E-2,6.4415485E-3,1.2573348E-1,-4.3546762E-2,-9.64852E-3,2.8105188E-2,-2.22043E-2,2.750583E-2,-5.343252E-3,6.714792E-2,-2.174097E-2,-5.2633803E-2,-2.0448128E-2,-3.641644E-2,-5.3215206E-2,5.193342E-2,1.0369386E-1,6.561854E-3,-3.8058396E-2,3.3477027E-2,8.731466E-2,-2.9492164E-2,4.9710353E-3,-2.113207E-2,4.847711E-2,-4.235613E-2,8.365358E-3],"categories":[],"categories_nodes":[],"categories_segments":[],"categories_sizes":[],"default_left":[0,0,0,0,0,0,0,0,0,0,0,0,0,0,0,0,0,0,0,0,0,0,0,0,0,0,0,0,0,0,0,0,0,0,0,0,0,0,0,0,0,0,0,0,0,0,0,0,0,0,0,0,0,0,0,0,0,0,0,0,0,0,0],"id":14,"left_children":[1,3,5,7,9,11,13,15,17,19,21,23,25,27,29,31,33,35,37,39,41,43,45,47,49,51,53,55,57,59,61,-1,-1,-1,-1,-1,-1,-1,-1,-1,-1,-1,-1,-1,-1,-1,-1,-1,-1,-1,-1,-1,-1,-1,-1,-1,-1,-1,-1,-1,-1,-1,-1],"loss_changes":[4.753071E2,2.1754733E2,1.7126007E2,1.7545734E2,3.532207E1,1.109556E2,7.478545E1,1.054245E2,1.2681015E1,2.4073616E1,2.2194695E1,6.3894043E0,5.5773453E1,4.258955E1,7.195999E0,2.9023315E1,3.6883446E1,8.650322E0,6.137069E0,1.1453529E1,1.2162552E1,1.1849484E1,4.5913763E0,4.7223206E0,4.3605347E0,5.6462555E0,6.0092034E0,1.1910515E1,5.587992E0,9.275354E0,1.8852005E0,0E0,0E0,0E0,0E0,0E0,0E0,0E0,0E0,0E0,0E0,0E0,0E0,0E0,0E0,0E0,0E0,0E0,0E0,0E0,0E0,0E0,0E0,0E0,0E0,0E0,0E0,0E0,0E0,0E0,0E0,0E0,0E0],"parents":[2147483647,0,0,1,1,2,2,3,3,4,4,5,5,6,6,7,7,8,8,9,9,10,10,11,11,12,12,13,13,14,14,15,15,16,16,17,17,18,18,19,19,20,20,21,21,22,22,23,23,24,24,25,25,26,26,27,27,28,28,29,29,30,30],"right_children":[2,4,6,8,10,12,14,16,18,20,22,24,26,28,30,32,34,36,38,40,42,44,46,48,50,52,54,56,58,60,62,-1,-1,-1,-1,-1,-1,-1,-1,-1,-1,-1,-1,-1,-1,-1,-1,-1,-1,-1,-1,-1,-1,-1,-1,-1,-1,-1,-1,-1,-1,-1,-1],"split_conditions":[-3.703727E-1,1.0687776E-1,-1.7080139E-1,1.8098955E0,-2.1014334E-1,1.7547888E0,-2.8472233E-1,-1.4675164E-1,3.5914093E-1,8.493884E-1,1.1510944E0,-3.551543E-2,-7.949458E-1,2.9673535E-1,6.0525393E-1,-5.576238E-1,3.6913487E-1,6.109631E-1,-5.3252774E-1,1.9645759E0,9.375047E-1,1.548532E-1,-7.664497E-1,1.76255E-1,1.3646842E0,1.330054E0,-4.62695E-1,8.711214E-1,2.5650138E-2,1.062133E0,1.5455855E0,5.8957595E-2,3.617699E-2,-2.2267502E-2,3.1240387E-2,-1.3537074E-2,-4.990871E-2,6.4415485E-3,1.2573348E-1,-4.3546762E-2,-9.64852E-3,2.8105188E-2,-2.22043E-2,2.750583E-2,-5.343252E-3,6.714792E-2,-2.174097E-2,-5.2633803E-2,-2.0448128E-2,-3.641644E-2,-5.3215206E-2,5.193342E-2,1.0369386E-1,6.561854E-3,-3.8058396E-2,3.3477027E-2,8.731466E-2,-2.9492164E-2,4.9710353E-3,-2.113207E-2,4.847711E-2,-4.235613E-2,8.365358E-3],"split_indices":[31,12,15,32,26,38,18,18,18,32,12,12,12,12,12,12,32,38,31,13,12,19,33,38,12,35,12,14,14,13,38,0,0,0,0,0,0,0,0,0,0,0,0,0,0,0,0,0,0,0,0,0,0,0,0,0,0,0,0,0,0,0,0],"split_type":[0,0,0,0,0,0,0,0,0,0,0,0,0,0,0,0,0,0,0,0,0,0,0,0,0,0,0,0,0,0,0,0,0,0,0,0,0,0,0,0,0,0,0,0,0,0,0,0,0,0,0,0,0,0,0,0,0,0,0,0,0,0,0],"sum_hessian":[8.640687E3,4.86828E3,3.7724062E3,3.3569404E3,1.5113394E3,2.5449595E3,1.2274469E3,3.0260366E3,3.3090387E2,7.6360443E2,7.4773486E2,2.3282E3,2.1675954E2,7.563418E2,4.7110513E2,2.506991E3,5.1904565E2,3.1099146E2,1.9912441E1,5.720745E2,1.9152994E2,5.0204742E2,2.4568745E2,1.4599174E3,8.6828253E2,9.619745E1,1.20562096E2,5.596399E2,1.9670192E2,2.5999664E2,2.111085E2,1.6508658E3,8.5612506E2,2.8688287E2,2.3216277E2,9.493159E1,2.1605986E2,1.4747598E1,5.1648445E0,4.4264722E2,1.2942729E2,1.0362341E2,8.790653E1,3.4063992E2,1.6140749E2,5.005309E0,2.4068214E2,1.411066E3,4.8851265E1,6.5731335E2,2.1096918E2,3.873743E1,5.746002E1,5.4265656E1,6.629644E1,5.154114E2,4.4228485E1,1.2022943E2,7.6472496E1,2.4014415E2,1.9852474E1,2.0382155E2,7.2869525E0],"tree_param":{"num_deleted":"0","num_feature":"59","num_nodes":"63","size_leaf_vector":"1"}},{"base_weights":[-6.578177E-3,-3.0338892E-1,1.023057E0,-4.8215443E-1,1.1163945E-2,7.0728266E-1,1.4263862E0,-5.413565E-1,-1.6034718E-1,-3.2104844E-1,2.9293668E-1,9.949003E-1,2.0742169E-1,1.4916743E0,3.781221E-1,-5.541782E-1,-4.3639544E-1,1.18097134E-1,-4.4543043E-1,-3.5752866E-1,2.2651435E-1,5.389929E-1,-2.8949636E-1,6.2342036E-1,1.2870691E0,-3.3823076E-1,6.545703E-1,1.5173181E0,1.982756E-2,-3.419498E-2,1.2264748E0,-5.5599757E-2,-4.7720034E-2,-2.1485215E-2,-5.1476914E-2,3.8713947E-2,-5.5166103E-2,-5.2300643E-2,-2.751427E-2,-4.114238E-2,-1.9065635E-3,4.961952E-2,-3.824461E-2,3.8406607E-2,1.23446405E-1,9.992664E-3,-4.252286E-2,2.8555E-2,1.2669647E-1,1.3279589E-1,-3.9958443E-2,-3.973561E-2,4.8267893E-3,8.679783E-2,-3.4141716E-2,1.3714159E-1,1.6679214E-1,-3.4119602E-2,1.5171959E-1,2.8744256E-2,-4.5802604E-2,1.5152574E-1,-3.8594324E-2],"categories":[],"categories_nodes":[],"categories_segments":[],"categories_sizes":[],"default_left":[0,0,0,0,0,0,0,0,0,0,0,0,0,0,0,0,0,0,0,0,0,0,0,0,0,0,0,0,0,0,0,0,0,0,0,0,0,0,0,0,0,0,0,0,0,0,0,0,0,0,0,0,0,0,0,0,0,0,0,0,0,0,0],"id":15,"left_children":[1,3,5,7,9,11,13,15,17,19,21,23,25,27,29,31,33,35,37,39,41,43,45,47,49,51,53,55,57,59,61,-1,-1,-1,-1,-1,-1,-1,-1,-1,-1,-1,-1,-1,-1,-1,-1,-1,-1,-1,-1,-1,-1,-1,-1,-1,-1,-1,-1,-1,-1,-1,-1],"loss_changes":[2.229841E3,3.1848438E2,2.0693127E2,6.871588E1,1.9230643E2,1.3173294E2,4.843579E1,3.8625488E0,4.4708866E1,1.891397E1,1.5945364E2,6.2394043E1,8.231097E1,2.539563E1,1.5193726E1,1.14868164E-1,5.735626E0,5.16383E1,3.530899E0,1.612342E1,9.961479E0,8.375998E1,1.7526297E1,5.5797386E1,2.2943909E1,3.4970741E0,3.9672905E1,1.2261108E1,7.3015223E0,4.237939E0,7.194254E0,0E0,0E0,0E0,0E0,0E0,0E0,0E0,0E0,0E0,0E0,0E0,0E0,0E0,0E0,0E0,0E0,0E0,0E0,0E0,0E0,0E0,0E0,0E0,0E0,0E0,0E0,0E0,0E0,0E0,0E0,0E0,0E0],"parents":[2147483647,0,0,1,1,2,2,3,3,4,4,5,5,6,6,7,7,8,8,9,9,10,10,11,11,12,12,13,13,14,14,15,15,16,16,17,17,18,18,19,19,20,20,21,21,22,22,23,23,24,24,25,25,26,26,27,27,28,28,29,29,30,30],"right_children":[2,4,6,8,10,12,14,16,18,20,22,24,26,28,30,32,34,36,38,40,42,44,46,48,50,52,54,56,58,60,62,-1,-1,-1,-1,-1,-1,-1,-1,-1,-1,-1,-1,-1,-1,-1,-1,-1,-1,-1,-1,-1,-1,-1,-1,-1,-1,-1,-1,-1,-1,-1,-1],"split_conditions":[8.493884E-1,-1.7080139E-1,1.8098955E0,1.1652158E0,-1.1111866E-1,-1.7790861E-1,1.2697555E0,3.6913487E-1,-7.00017E-1,9.9404955E-1,-5.477117E-2,3.039505E-1,-1.6748103E-1,1.9172989E0,3.7309096E0,6.8975395E-1,-8.4241015E-1,-3.810408E-1,3.6913487E-1,1.0090481E0,-1.3888778E-1,7.064721E-2,1.548532E-1,-1.7080139E-1,1.623558E0,-1.7080139E-1,1.0798979E0,2.7704027E0,3.7309096E0,2.2190433E0,2.764884E0,-5.5599757E-2,-4.7720034E-2,-2.1485215E-2,-5.1476914E-2,3.8713947E-2,-5.5166103E-2,-5.2300643E-2,-2.751427E-2,-4.114238E-2,-1.9065635E-3,4.961952E-2,-3.824461E-2,3.8406607E-2,1.23446405E-1,9.992664E-3,-4.252286E-2,2.8555E-2,1.2669647E-1,1.3279589E-1,-3.9958443E-2,-3.973561E-2,4.8267893E-3,8.679783E-2,-3.4141716E-2,1.3714159E-1,1.6679214E-1,-3.4119602E-2,1.5171959E-1,2.8744256E-2,-4.5802604E-2,1.5152574E-1,-3.8594324E-2],"split_indices":[32,15,32,38,32,12,12,32,12,38,18,38,26,19,32,38,12,31,32,13,19,14,19,15,19,15,12,32,32,12,12,0,0,0,0,0,0,0,0,0,0,0,0,0,0,0,0,0,0,0,0,0,0,0,0,0,0,0,0,0,0,0,0],"split_type":[0,0,0,0,0,0,0,0,0,0,0,0,0,0,0,0,0,0,0,0,0,0,0,0,0,0,0,0,0,0,0,0,0,0,0,0,0,0,0,0,0,0,0,0,0,0,0,0,0,0,0,0,0,0,0,0,0,0,0,0,0,0,0],"sum_hessian":[7.2944224E3,5.6627417E3,1.6316812E3,3.6103745E3,2.052367E3,9.167181E2,7.14963E2,3.04881E3,5.6156445E2,9.418173E2,1.1105497E3,5.8126855E2,3.3544955E2,6.7264624E2,4.2316772E1,2.7131072E3,3.3570276E2,2.8438647E2,2.77178E2,8.833153E2,5.850199E1,7.8077576E2,3.2977402E2,2.5728085E2,3.2398767E2,1.5119315E2,1.8425641E2,6.6109717E2,1.1549105E1,2.9122381E1,1.3194391E1,2.6443838E3,6.872337E1,8.870287E1,2.469999E2,2.0318776E2,8.11987E1,1.8900424E2,8.817377E1,7.617953E2,1.2152002E2,4.067435E1,1.782764E1,6.3980225E2,1.4097351E2,8.530195E1,2.4447206E2,1.696538E2,8.762706E1,3.1652676E2,7.4609227E0,1.311085E2,2.0084648E1,1.5184866E2,3.240776E1,3.4092242E2,3.201747E2,9.927634E0,1.6214701E0,1.6740288E1,1.2382094E1,1.1241336E1,1.9530555E0],"tree_param":{"num_deleted":"0","num_feature":"59","num_nodes":"63","size_leaf_vector":"1"}},{"base_weights":[-6.4286957E-3,-3.9010155E-1,7.588528E-1,-4.9145502E-1,3.7224218E-1,4.605864E-1,1.1473242E0,-5.086878E-1,1.4368959E-1,1.7671078E-2,7.594295E-1,-2.2111967E-2,8.2612574E-1,1.2869443E0,5.435339E-1,-5.309633E-1,-3.2224977E-1,9.246885E-1,-1.8298838E-1,-4.1174555E-1,3.3227566E-1,9.3311936E-1,-8.859832E-2,-3.5667667E-1,6.625329E-1,1.0789231E0,2.193005E-1,1.5100064E0,1.0131041E0,9.902687E-2,1.3148193E0,-5.364207E-2,-1.9544063E-2,-5.3405493E-2,-4.0855426E-3,1.2864968E-1,-2.4831017E-2,-2.367303E-2,8.731789E-2,-4.5025386E-2,5.1887054E-2,5.2981164E-2,-3.526813E-2,1.2361558E-1,4.2016983E-2,-3.2219842E-2,4.729497E-2,-2.1490356E-2,-5.3726282E-2,8.988022E-2,-7.0000538E-3,8.927618E-2,1.5477322E-1,-2.415635E-2,1.0283448E-1,1.544843E-1,7.342884E-2,7.521808E-2,1.5643328E-1,-1.2851966E-2,1.0677307E-1,1.5416566E-1,8.116924E-2],"categories":[],"categories_nodes":[],"categories_segments":[],"categories_sizes":[],"default_left":[0,0,0,0,0,0,0,0,0,0,0,0,0,0,0,0,0,0,0,0,0,0,0,0,0,0,0,0,0,0,0,0,0,0,0,0,0,0,0,0,0,0,0,0,0,0,0,0,0,0,0,0,0,0,0,0,0,0,0,0,0,0,0],"id":16,"left_children":[1,3,5,7,9,11,13,15,17,19,21,23,25,27,29,31,33,35,37,39,41,43,45,47,49,51,53,55,57,59,61,-1,-1,-1,-1,-1,-1,-1,-1,-1,-1,-1,-1,-1,-1,-1,-1,-1,-1,-1,-1,-1,-1,-1,-1,-1,-1,-1,-1,-1,-1,-1,-1],"loss_changes":[1.9913191E3,3.4921503E2,2.6188184E2,4.3718567E1,7.283892E1,2.2635834E2,8.216504E1,1.5952942E1,2.7242544E1,3.769665E1,3.7442398E1,1.27082695E2,1.1174887E2,4.7191284E1,6.375512E1,6.242737E0,2.4826576E1,1.3671276E1,4.500821E0,4.4625587E0,2.1972881E1,3.221817E1,5.9283576E0,9.425034E0,3.1585312E1,4.3570496E1,8.076158E1,1.0688965E1,5.075882E1,2.6432587E1,6.5146637E0,0E0,0E0,0E0,0E0,0E0,0E0,0E0,0E0,0E0,0E0,0E0,0E0,0E0,0E0,0E0,0E0,0E0,0E0,0E0,0E0,0E0,0E0,0E0,0E0,0E0,0E0,0E0,0E0,0E0,0E0,0E0,0E0],"parents":[2147483647,0,0,1,1,2,2,3,3,4,4,5,5,6,6,7,7,8,8,9,9,10,10,11,11,12,12,13,13,14,14,15,15,16,16,17,17,18,18,19,19,20,20,21,21,22,22,23,23,24,24,25,25,26,26,27,27,28,28,29,29,30,30],"right_children":[2,4,6,8,10,12,14,16,18,20,22,24,26,28,30,32,34,36,38,40,42,44,46,48,50,52,54,56,58,60,62,-1,-1,-1,-1,-1,-1,-1,-1,-1,-1,-1,-1,-1,-1,-1,-1,-1,-1,-1,-1,-1,-1,-1,-1,-1,-1,-1,-1,-1,-1,-1,-1],"split_conditions":[5.1032513E-1,7.270628E-1,1.548532E-1,2.3627927E0,1.329817E0,-3.490365E-1,3.6913487E-1,1.5434216E-1,7.967086E-1,-3.8744166E-1,3.4965146E-1,1.9579892E0,-1.7080139E-1,-1.7080139E-1,1.8867925E0,1.329817E0,-3.597046E-1,1.09823965E-1,1.548532E-1,4.6286073E-1,-1.6748103E-1,-1.7080139E-1,2.6126623E0,-1.7080139E-1,7.436237E-1,2.3627927E0,1.815596E0,1.3363822E0,2.504781E0,3.0922627E0,3.039505E-1,-5.364207E-2,-1.9544063E-2,-5.3405493E-2,-4.0855426E-3,1.2864968E-1,-2.4831017E-2,-2.367303E-2,8.731789E-2,-4.5025386E-2,5.1887054E-2,5.2981164E-2,-3.526813E-2,1.2361558E-1,4.2016983E-2,-3.2219842E-2,4.729497E-2,-2.1490356E-2,-5.3726282E-2,8.988022E-2,-7.0000538E-3,8.927618E-2,1.5477322E-1,-2.415635E-2,1.0283448E-1,1.544843E-1,7.342884E-2,7.521808E-2,1.5643328E-1,-1.2851966E-2,1.0677307E-1,1.5416566E-1,8.116924E-2],"split_indices":[12,18,19,31,19,31,32,12,13,31,30,12,15,15,12,19,31,26,19,12,26,15,18,15,13,31,12,38,19,19,38,0,0,0,0,0,0,0,0,0,0,0,0,0,0,0,0,0,0,0,0,0,0,0,0,0,0,0,0,0,0,0,0],"split_type":[0,0,0,0,0,0,0,0,0,0,0,0,0,0,0,0,0,0,0,0,0,0,0,0,0,0,0,0,0,0,0,0,0,0,0,0,0,0,0,0,0,0,0,0,0,0,0,0,0,0,0,0,0,0,0,0,0,0,0,0,0,0,0],"sum_hessian":[6.7800044E3,4.516269E3,2.2637354E3,3.986606E3,5.296632E2,1.2817782E3,9.8195715E2,3.8814924E3,1.0511371E2,2.7702243E2,2.5264075E2,5.5277405E2,7.2900415E2,7.9661664E2,1.8534052E2,3.4655784E3,4.159139E2,3.0460434E1,7.4653275E1,1.1700659E2,1.6001584E2,2.0960907E2,4.3031685E1,3.7164276E2,1.8113124E2,5.1406976E2,2.1493439E2,4.3652335E2,3.6009332E2,1.1829382E2,6.7046684E1,3.409523E3,5.6055614E1,2.3678683E2,1.7912706E2,2.3205885E1,7.25455E0,7.177685E1,2.8764274E0,1.1285298E2,4.1536074E0,1.24373924E2,3.564192E1,1.308793E2,7.872977E1,3.0690767E1,1.2340916E1,2.0942169E2,1.6222108E2,1.3678577E2,4.4345478E1,3.7003522E2,1.4403455E2,1.3737915E2,7.755524E1,4.168133E2,1.971005E1,2.460096E2,1.14083725E2,9.6494736E1,2.1799088E1,4.478914E1,2.225755E1],"tree_param":{"num_deleted":"0","num_feature":"59","num_nodes":"63","size_leaf_vector":"1"}},{"base_weights":[3.801972E-3,1.5770803E-1,-3.8273758E-1,2.6714873E-1,-3.5262108E-1,-5.530838E-1,-1.183341E-1,3.8102216E-1,1.3142251E-2,-1.7932099E-1,-6.0377204E-1,-3.3738762E-1,-7.378669E-1,9.8466076E-2,-3.1437325E-1,4.3447155E-1,-2.1006037E-1,-2.1611692E-1,1.6011582E-1,5.184815E-3,-4.705578E-1,-7.775265E-1,-4.2723322E-1,-1.6864587E-1,-7.142528E-1,-7.7581203E-1,-1.7056413E-1,2.073128E-1,-3.6442417E-1,-4.7177067E-1,-3.752447E-2,4.9541663E-2,5.9037615E-5,4.207372E-3,-5.631851E-2,-4.0841665E-2,1.0657555E-2,1.939737E-2,-2.3865256E-2,1.2359851E-2,-7.126684E-2,-2.468703E-3,-6.045829E-2,-8.0993265E-2,-1.714725E-2,-1.9536309E-2,-7.595847E-2,-1.992946E-3,-6.897211E-2,-7.750294E-2,-2.0576559E-2,-6.413784E-2,-8.373656E-2,2.8891716E-2,-4.426565E-2,2.893802E-2,-2.5636723E-2,-4.9125057E-2,8.597428E-3,-6.3104585E-2,-1.4056106E-3,3.6883706E-3,-5.776013E-2],"categories":[],"categories_nodes":[],"categories_segments":[],"categories_sizes":[],"default_left":[0,0,0,0,0,0,0,0,0,0,0,0,0,0,0,0,0,0,0,0,0,0,0,0,0,0,0,0,0,0,0,0,0,0,0,0,0,0,0,0,0,0,0,0,0,0,0,0,0,0,0,0,0,0,0,0,0,0,0,0,0,0,0],"id":17,"left_children":[1,3,5,7,9,11,13,15,17,19,21,23,25,27,29,31,33,35,37,39,41,43,45,47,49,51,53,55,57,59,61,-1,-1,-1,-1,-1,-1,-1,-1,-1,-1,-1,-1,-1,-1,-1,-1,-1,-1,-1,-1,-1,-1,-1,-1,-1,-1,-1,-1,-1,-1,-1,-1],"loss_changes":[9.262475E2,6.2203345E2,1.9963605E2,2.6523114E2,8.5496124E1,1.072168E2,7.3922554E1,2.0012012E2,9.571132E1,6.261427E1,2.4287415E1,7.911125E1,3.1110107E1,4.1709553E1,3.9776947E1,1.5354602E2,4.683136E1,6.890195E1,2.341502E1,6.0805553E1,2.6990036E1,7.781418E0,3.0702377E1,6.677695E1,1.1739227E1,1.071759E1,1.1663979E1,2.555651E1,9.049236E0,4.2430557E1,1.33671255E1,0E0,0E0,0E0,0E0,0E0,0E0,0E0,0E0,0E0,0E0,0E0,0E0,0E0,0E0,0E0,0E0,0E0,0E0,0E0,0E0,0E0,0E0,0E0,0E0,0E0,0E0,0E0,0E0,0E0,0E0,0E0,0E0],"parents":[2147483647,0,0,1,1,2,2,3,3,4,4,5,5,6,6,7,7,8,8,9,9,10,10,11,11,12,12,13,13,14,14,15,15,16,16,17,17,18,18,19,19,20,20,21,21,22,22,23,23,24,24,25,25,26,26,27,27,28,28,29,29,30,30],"right_children":[2,4,6,8,10,12,14,16,18,20,22,24,26,28,30,32,34,36,38,40,42,44,46,48,50,52,54,56,58,60,62,-1,-1,-1,-1,-1,-1,-1,-1,-1,-1,-1,-1,-1,-1,-1,-1,-1,-1,-1,-1,-1,-1,-1,-1,-1,-1,-1,-1,-1,-1,-1,-1],"split_conditions":[3.6913487E-1,9.1377246E-1,-1.3044423E-1,-1.7080139E-1,1.548532E-1,9.474724E-2,-2.1014334E-1,8.650335E-1,-3.7677357E-1,1.934257E0,-1.7080139E-1,-1.7080139E-1,2.2117023E-1,1.8098955E0,8.425759E-1,1.8227118E0,1.329817E0,1.19489655E-2,5.865108E-1,3.0647533E0,-5.0052345E-1,1.3363822E0,1.9172989E0,1.3296419E0,4.4859415E-1,8.493884E-1,8.493884E-1,1.9579892E0,1.4121486E0,4.4859415E-1,2.290149E0,4.9541663E-2,5.9037615E-5,4.207372E-3,-5.631851E-2,-4.0841665E-2,1.0657555E-2,1.939737E-2,-2.3865256E-2,1.2359851E-2,-7.126684E-2,-2.468703E-3,-6.045829E-2,-8.0993265E-2,-1.714725E-2,-1.9536309E-2,-7.595847E-2,-1.992946E-3,-6.897211E-2,-7.750294E-2,-2.0576559E-2,-6.413784E-2,-8.373656E-2,2.8891716E-2,-4.426565E-2,2.893802E-2,-2.5636723E-2,-4.9125057E-2,8.597428E-3,-6.3104585E-2,-1.4056106E-3,3.6883706E-3,-5.776013E-2],"split_indices":[32,12,12,15,19,38,26,18,31,12,15,15,18,32,12,38,19,12,38,31,31,38,19,32,19,32,32,12,12,19,32,0,0,0,0,0,0,0,0,0,0,0,0,0,0,0,0,0,0,0,0,0,0,0,0,0,0,0,0,0,0,0,0],"split_type":[0,0,0,0,0,0,0,0,0,0,0,0,0,0,0,0,0,0,0,0,0,0,0,0,0,0,0,0,0,0,0,0,0,0,0,0,0,0,0,0,0,0,0,0,0,0,0,0,0,0,0,0,0,0,0,0,0,0,0,0,0,0,0],"sum_hessian":[1.5567584E4,1.11347295E4,4.4328545E3,9.16892E3,1.9658097E3,2.695283E3,1.7375715E3,6.33043E3,2.8384897E3,1.1641989E3,8.0161084E2,1.2449204E3,1.4503624E3,8.2533234E2,9.122392E2,5.805707E3,5.247235E2,1.108659E3,1.7298306E3,7.132925E2,4.509064E2,4.022756E2,3.993352E2,8.608994E2,3.8402097E2,1.3590896E3,9.127294E1,6.686534E2,1.5667896E2,5.81139E2,3.3110022E2,5.090525E3,7.151818E2,3.066521E2,2.180714E2,6.9451575E2,4.141433E2,1.5949253E3,1.3490538E2,6.130023E2,1.0029017E2,1.0448683E2,3.464196E2,3.8153806E2,2.073754E1,2.3616138E2,1.6317384E2,6.7055835E2,1.9034108E2,3.4255338E2,4.146761E1,4.304352E2,9.2865436E2,3.392392E1,5.7349022E1,5.684232E2,1.00230125E2,1.2218308E2,3.4495876E1,4.3083774E2,1.5030125E2,2.9182608E2,3.927414E1],"tree_param":{"num_deleted":"0","num_feature":"59","num_nodes":"63","size_leaf_vector":"1"}},{"base_weights":[5.1363246E-3,1.936808E-1,-2.5015414E-1,3.1732967E-1,-1.1129916E-1,-3.9898625E-1,4.4229433E-2,3.833121E-1,-3.270504E-1,-2.4832186E-1,2.4149258E-2,-4.6405914E-1,2.4667957E-1,2.2619927E-1,-2.5860864E-1,4.4774437E-1,-6.206588E-2,-3.788448E-1,4.1029078E-1,-3.22548E-1,1.6141851E-1,1.3399822E-1,-1.903648E-1,-5.068419E-1,-3.9247605E-1,7.4596614E-1,-1.7865787E-1,3.8318652E-1,-8.790868E-2,-1.4794047E-1,-3.9610037E-1,5.4195877E-2,3.286749E-2,-2.9651884E-2,2.193086E-2,-1.3650037E-2,-4.9765658E-2,7.117495E-2,-3.5712764E-2,-4.0539455E-2,1.1046325E-3,3.2842632E-2,-2.7544314E-2,1.7116284E-2,-3.405797E-2,-2.32559E-2,2.3102472E-2,-5.180357E-2,-1.8742152E-2,-3.4869157E-2,-5.2570637E-2,6.582981E-2,1.3673931E-1,5.5460213E-3,-3.74472E-2,3.3705167E-2,8.0793254E-2,-2.4173157E-2,1.4554578E-2,-2.0181673E-2,4.5550726E-2,-4.141912E-2,8.196234E-3],"categories":[],"categories_nodes":[],"categories_segments":[],"categories_sizes":[],"default_left":[0,0,0,0,0,0,0,0,0,0,0,0,0,0,0,0,0,0,0,0,0,0,0,0,0,0,0,0,0,0,0,0,0,0,0,0,0,0,0,0,0,0,0,0,0,0,0,0,0,0,0,0,0,0,0,0,0,0,0,0,0,0,0],"id":18,"left_children":[1,3,5,7,9,11,13,15,17,19,21,23,25,27,29,31,33,35,37,39,41,43,45,47,49,51,53,55,57,59,61,-1,-1,-1,-1,-1,-1,-1,-1,-1,-1,-1,-1,-1,-1,-1,-1,-1,-1,-1,-1,-1,-1,-1,-1,-1,-1,-1,-1,-1,-1,-1,-1],"loss_changes":[4.13403E2,1.8632916E2,1.5987358E2,1.4958685E2,2.6468924E1,1.019368E2,6.762462E1,9.154776E1,1.2645824E1,2.1611866E1,1.694342E1,6.544525E0,4.7392296E1,3.7826183E1,6.9509163E0,3.107843E1,2.6713009E1,8.746052E0,5.3313546E0,1.6600609E1,8.071428E0,8.443104E0,4.384181E0,4.8184204E0,4.6475754E0,4.687374E0,5.5666547E0,9.744957E0,9.2359085E0,8.441772E0,1.8055305E0,0E0,0E0,0E0,0E0,0E0,0E0,0E0,0E0,0E0,0E0,0E0,0E0,0E0,0E0,0E0,0E0,0E0,0E0,0E0,0E0,0E0,0E0,0E0,0E0,0E0,0E0,0E0,0E0,0E0,0E0,0E0,0E0],"parents":[2147483647,0,0,1,1,2,2,3,3,4,4,5,5,6,6,7,7,8,8,9,9,10,10,11,11,12,12,13,13,14,14,15,15,16,16,17,17,18,18,19,19,20,20,21,21,22,22,23,23,24,24,25,25,26,26,27,27,28,28,29,29,30,30],"right_children":[2,4,6,8,10,12,14,16,18,20,22,24,26,28,30,32,34,36,38,40,42,44,46,48,50,52,54,56,58,60,62,-1,-1,-1,-1,-1,-1,-1,-1,-1,-1,-1,-1,-1,-1,-1,-1,-1,-1,-1,-1,-1,-1,-1,-1,-1,-1,-1,-1,-1,-1,-1,-1],"split_conditions":[-3.703727E-1,1.5434216E-1,-1.7080139E-1,1.8098955E0,-2.1014334E-1,1.7547888E0,-2.8472233E-1,7.4233514E-1,3.5914093E-1,1.3296419E0,1.1510944E0,-3.551543E-2,-7.949458E-1,1.0687776E-1,6.0525393E-1,-6.2882036E-1,3.6913487E-1,2.290149E0,2.7704027E0,2.2300003E0,1.4358808E0,2.21104E0,1.8098955E0,1.76255E-1,1.3646842E0,1E0,-4.62695E-1,1.0561494E-1,2.5650138E-2,1.062133E0,1.5455855E0,5.4195877E-2,3.286749E-2,-2.9651884E-2,2.193086E-2,-1.3650037E-2,-4.9765658E-2,7.117495E-2,-3.5712764E-2,-4.0539455E-2,1.1046325E-3,3.2842632E-2,-2.7544314E-2,1.7116284E-2,-3.405797E-2,-2.32559E-2,2.3102472E-2,-5.180357E-2,-1.8742152E-2,-3.4869157E-2,-5.2570637E-2,6.582981E-2,1.3673931E-1,5.5460213E-3,-3.74472E-2,3.3705167E-2,8.0793254E-2,-2.4173157E-2,1.4554578E-2,-2.0181673E-2,4.5550726E-2,-4.141912E-2,8.196234E-3],"split_indices":[31,12,15,32,26,38,18,19,18,32,12,12,12,12,12,12,32,32,32,13,12,19,32,38,12,45,12,38,14,13,38,0,0,0,0,0,0,0,0,0,0,0,0,0,0,0,0,0,0,0,0,0,0,0,0,0,0,0,0,0,0,0,0],"split_type":[0,0,0,0,0,0,0,0,0,0,0,0,0,0,0,0,0,0,0,0,0,0,0,0,0,0,0,0,0,0,0,0,0,0,0,0,0,0,0,0,0,0,0,0,0,0,0,0,0,0,0,0,0,0,0,0,0,0,0,0,0,0,0],"sum_hessian":[8.58665E3,4.9391143E3,3.6475356E3,3.5142725E3,1.4248418E3,2.4224548E3,1.2250808E3,3.1882148E3,3.2605774E2,7.078904E2,7.1695135E2,2.2009185E3,2.2153651E2,7.654119E2,4.5966885E2,2.7852683E3,4.029465E2,3.0511142E2,2.0946306E1,5.995011E2,1.0838928E2,4.7439645E2,2.4255493E2,1.3737777E3,8.271407E2,1.0156252E2,1.1997398E2,5.1020023E2,2.5521169E2,2.5582735E2,2.038415E2,1.5529424E3,1.2323258E3,2.1977061E2,1.8317587E2,1.01081314E2,2.0403012E2,1.5090837E1,5.8554707E0,4.8006424E2,1.1943689E2,7.8592415E1,2.9796867E1,4.4053696E2,3.385951E1,2.2088553E2,2.1669397E1,1.3266643E3,4.71134E1,6.2527045E2,2.0187024E2,9.0810715E1,1.075181E1,5.4969025E1,6.500496E1,4.6183087E2,4.836938E1,1.5382265E2,1.0138903E2,2.3546999E2,2.0357372E1,1.9653773E2,7.3037696E0],"tree_param":{"num_deleted":"0","num_feature":"59","num_nodes":"63","size_leaf_vector":"1"}},{"base_weights":[-8.271977E-3,-2.9367992E-1,8.90372E-1,-4.746037E-1,7.241051E-3,6.249925E-1,1.2205865E0,-5.3632593E-1,-1.5515533E-1,-3.1044728E-1,2.597992E-1,7.8713834E-1,-3.886425E-2,1.3098714E0,6.9054246E-1,-5.4974717E-1,-4.301635E-1,1.1199491E-1,-4.3911022E-1,-3.7401593E-1,2.4500678E-3,4.881858E-1,-2.7858165E-1,8.6167246E-1,-2.3833354E-1,1.45512E-1,-4.4527245E-1,1.3201753E0,1.8486528E-1,2.891024E-1,1.21925E0,-5.516829E-2,-4.683496E-2,-4.854153E-2,-1.0066091E-2,3.5662904E-2,-5.4766595E-2,-5.1864117E-2,-2.676267E-2,-4.0879186E-2,8.610623E-3,5.3664614E-2,-1.731289E-2,3.363801E-2,1.12739444E-1,-3.695361E-2,1.1473314E-1,6.543987E-2,1.209414E-1,-3.856164E-2,8.286629E-2,-1.32114515E-2,5.093332E-2,1.8334325E-2,-5.0566044E-2,1.3279717E-1,1.5113214E-2,-1.5418793E-2,1.0664796E-1,-1.8270234E-2,7.223081E-2,1.3314164E-1,-5.7142954E-3],"categories":[],"categories_nodes":[],"categories_segments":[],"categories_sizes":[],"default_left":[0,0,0,0,0,0,0,0,0,0,0,0,0,0,0,0,0,0,0,0,0,0,0,0,0,0,0,0,0,0,0,0,0,0,0,0,0,0,0,0,0,0,0,0,0,0,0,0,0,0,0,0,0,0,0,0,0,0,0,0,0,0,0],"id":19,"left_children":[1,3,5,7,9,11,13,15,17,19,21,23,25,27,29,31,33,35,37,39,41,43,45,47,49,51,53,55,57,59,61,-1,-1,-1,-1,-1,-1,-1,-1,-1,-1,-1,-1,-1,-1,-1,-1,-1,-1,-1,-1,-1,-1,-1,-1,-1,-1,-1,-1,-1,-1,-1,-1],"loss_changes":[1.8515427E3,2.9829663E2,1.5172644E2,6.738275E1,1.6522142E2,1.0410013E2,3.5738647E1,3.848816E0,4.2186905E1,1.814154E1,1.4119363E2,5.9599182E1,1.4357365E1,7.4245605E0,2.3788162E1,1.4208984E-1,5.8933563E0,4.6510803E1,3.5363388E0,1.2164581E1,1.4630435E1,7.781752E1,4.4822525E1,5.143878E1,8.717072E0,1.3396759E1,2.3617792E0,5.772705E0,2.3067439E0,1.3613839E1,7.05954E0,0E0,0E0,0E0,0E0,0E0,0E0,0E0,0E0,0E0,0E0,0E0,0E0,0E0,0E0,0E0,0E0,0E0,0E0,0E0,0E0,0E0,0E0,0E0,0E0,0E0,0E0,0E0,0E0,0E0,0E0,0E0,0E0],"parents":[2147483647,0,0,1,1,2,2,3,3,4,4,5,5,6,6,7,7,8,8,9,9,10,10,11,11,12,12,13,13,14,14,15,15,16,16,17,17,18,18,19,19,20,20,21,21,22,22,23,23,24,24,25,25,26,26,27,27,28,28,29,29,30,30],"right_children":[2,4,6,8,10,12,14,16,18,20,22,24,26,28,30,32,34,36,38,40,42,44,46,48,50,52,54,56,58,60,62,-1,-1,-1,-1,-1,-1,-1,-1,-1,-1,-1,-1,-1,-1,-1,-1,-1,-1,-1,-1,-1,-1,-1,-1,-1,-1,-1,-1,-1,-1,-1,-1],"split_conditions":[8.493884E-1,-1.7080139E-1,1.8098955E0,1.1652158E0,-1.1111866E-1,-1.4675164E-1,5.1032513E-1,3.6913487E-1,-7.00017E-1,3.6194405E-1,3.4419975E-1,8.188437E-1,1.0030042E0,1.9172989E0,3.2506561E0,6.8975395E-1,9.474724E-2,-3.810408E-1,3.6913487E-1,9.9404955E-1,3.059844E-1,2.127749E-1,2.0707457E0,-1.7080139E-1,1.6559967E0,-1.6748103E-1,-1.3888778E-1,8.473989E0,3.2506561E0,-1.7080139E-1,2.5750263E0,-5.516829E-2,-4.683496E-2,-4.854153E-2,-1.0066091E-2,3.5662904E-2,-5.4766595E-2,-5.1864117E-2,-2.676267E-2,-4.0879186E-2,8.610623E-3,5.3664614E-2,-1.731289E-2,3.363801E-2,1.12739444E-1,-3.695361E-2,1.1473314E-1,6.543987E-2,1.209414E-1,-3.856164E-2,8.286629E-2,-1.32114515E-2,5.093332E-2,1.8334325E-2,-5.0566044E-2,1.3279717E-1,1.5113214E-2,-1.5418793E-2,1.0664796E-1,-1.8270234E-2,7.223081E-2,1.3314164E-1,-5.7142954E-3],"split_indices":[32,15,32,38,32,18,12,32,12,14,12,12,18,19,32,38,38,31,32,38,31,13,13,15,17,26,19,7,32,15,12,0,0,0,0,0,0,0,0,0,0,0,0,0,0,0,0,0,0,0,0,0,0,0,0,0,0,0,0,0,0,0,0],"split_type":[0,0,0,0,0,0,0,0,0,0,0,0,0,0,0,0,0,0,0,0,0,0,0,0,0,0,0,0,0,0,0,0,0,0,0,0,0,0,0,0,0,0,0,0,0,0,0,0,0,0,0,0,0,0,0,0,0,0,0,0,0,0,0],"sum_hessian":[7.21703E3,5.4779233E3,1.7391068E3,3.4207039E3,2.0572192E3,9.658149E2,7.732919E2,2.8662268E3,5.544772E2,9.1102637E2,1.1461927E3,7.7607434E2,1.8974054E2,6.60552E2,1.127399E2,2.5408318E3,3.2539496E2,2.8600433E2,2.6847284E2,7.570315E2,1.5399487E2,8.0485736E2,3.4133536E2,7.2363806E2,5.243628E1,1.3096655E2,5.877398E1,6.54385E2,6.166958E0,6.4962E1,4.77779E1,2.4761687E3,6.466307E1,2.782621E2,4.7132874E1,2.089682E2,7.703614E1,1.8202736E2,8.6445465E1,7.039395E2,5.3092014E1,3.7585423E1,1.1640945E2,6.516284E2,1.53229E2,3.2156464E2,1.977074E1,4.5519678E2,2.684413E2,4.6637295E1,5.798983E0,7.464384E1,5.632272E1,4.972814E0,5.3801167E1,6.499148E2,4.470209E0,5.049946E0,1.1170121E0,3.1372467E1,3.358953E1,4.3878826E1,3.8990736E0],"tree_param":{"num_deleted":"0","num_feature":"59","num_nodes":"63","size_leaf_vector":"1"}},{"base_weights":[-7.4335732E-3,-3.818353E-1,6.7822385E-1,-4.8521602E-1,3.3901623E-1,8.1985915E-1,6.4723335E-2,-5.0321513E-1,1.500174E-1,1.7396869E-1,1.0118321E0,5.817205E-1,1.1144997E0,-1.2770234E-1,1.0717839E0,-5.2659994E-1,-3.1116343E-1,8.512751E-1,-1.6739206E-1,-2.5321236E-1,5.009805E-1,1.1719915E0,1.7067274E-1,2.705464E-1,9.6462506E-1,1.2985126E0,8.8572294E-1,-3.2964465E-1,7.2609323E-1,1.198249E0,-1.6041493E-1,-5.3233206E-2,-1.8626874E-2,-5.297854E-2,-3.1126384E-3,1.1581403E-1,-2.387878E-2,-8.643062E-4,-5.281163E-2,-7.2814836E-3,-5.0460726E-2,7.04144E-2,-1.2706335E-2,-3.5502404E-2,1.2050142E-1,-3.4755126E-2,7.184521E-2,5.6134727E-2,-3.74013E-2,1.118927E-1,4.9167383E-2,1.3370009E-1,8.032647E-2,5.9722096E-2,1.2411459E-1,-4.866733E-2,-1.3205415E-3,9.439249E-2,1.1915843E-2,1.4976591E-1,4.5476906E-2,-5.0602026E-2,3.482831E-2],"categories":[],"categories_nodes":[],"categories_segments":[],"categories_sizes":[],"default_left":[0,0,0,0,0,0,0,0,0,0,0,0,0,0,0,0,0,0,0,0,0,0,0,0,0,0,0,0,0,0,0,0,0,0,0,0,0,0,0,0,0,0,0,0,0,0,0,0,0,0,0,0,0,0,0,0,0,0,0,0,0,0,0],"id":20,"left_children":[1,3,5,7,9,11,13,15,17,19,21,23,25,27,29,31,33,35,37,39,41,43,45,47,49,51,53,55,57,59,61,-1,-1,-1,-1,-1,-1,-1,-1,-1,-1,-1,-1,-1,-1,-1,-1,-1,-1,-1,-1,-1,-1,-1,-1,-1,-1,-1,-1,-1,-1,-1,-1],"loss_changes":[1.7166157E3,3.2248596E2,2.0516846E2,4.3330017E1,6.0131298E1,1.339779E2,8.618962E1,1.6359253E1,2.351613E1,6.121601E1,1.4184235E1,1.26417114E2,3.490735E1,6.467516E1,1.1309898E1,6.2961426E0,2.4582302E1,1.1276514E1,4.182908E0,8.592556E0,3.1737183E1,4.9421387E0,5.4299264E0,1.1040851E2,3.4206238E1,7.9335327E0,3.8733E1,1.5045788E1,9.379864E0,1.3748642E1,1.4988024E0,0E0,0E0,0E0,0E0,0E0,0E0,0E0,0E0,0E0,0E0,0E0,0E0,0E0,0E0,0E0,0E0,0E0,0E0,0E0,0E0,0E0,0E0,0E0,0E0,0E0,0E0,0E0,0E0,0E0,0E0,0E0,0E0],"parents":[2147483647,0,0,1,1,2,2,3,3,4,4,5,5,6,6,7,7,8,8,9,9,10,10,11,11,12,12,13,13,14,14,15,15,16,16,17,17,18,18,19,19,20,20,21,21,22,22,23,23,24,24,25,25,26,26,27,27,28,28,29,29,30,30],"right_children":[2,4,6,8,10,12,14,16,18,20,22,24,26,28,30,32,34,36,38,40,42,44,46,48,50,52,54,56,58,60,62,-1,-1,-1,-1,-1,-1,-1,-1,-1,-1,-1,-1,-1,-1,-1,-1,-1,-1,-1,-1,-1,-1,-1,-1,-1,-1,-1,-1,-1,-1,-1,-1],"split_conditions":[5.1032513E-1,7.270628E-1,3.6913487E-1,2.3627927E0,2.7985218E0,1.548532E-1,2.7886162E0,1.5434216E-1,7.967086E-1,-3.234331E-1,3.4965146E-1,1.5070775E0,-1.7080139E-1,1.6008773E0,5.8436906E-1,1.329817E0,-3.597046E-1,1.09823965E-1,-1.7080139E-1,3.6913487E-1,-1.7080139E-1,8.650335E-1,2.4746916E0,-1.7080139E-1,3.1682001E-3,4.2621216E-1,1.9172989E0,1.4596131E0,1.3296419E0,1.3296419E0,2.8394055E-1,-5.3233206E-2,-1.8626874E-2,-5.297854E-2,-3.1126384E-3,1.1581403E-1,-2.387878E-2,-8.643062E-4,-5.281163E-2,-7.2814836E-3,-5.0460726E-2,7.04144E-2,-1.2706335E-2,-3.5502404E-2,1.2050142E-1,-3.4755126E-2,7.184521E-2,5.6134727E-2,-3.74013E-2,1.118927E-1,4.9167383E-2,1.3370009E-1,8.032647E-2,5.9722096E-2,1.2411459E-1,-4.866733E-2,-1.3205415E-3,9.439249E-2,1.1915843E-2,1.4976591E-1,4.5476906E-2,-5.0602026E-2,3.482831E-2],"split_indices":[12,18,32,31,19,19,12,12,13,31,30,12,15,18,13,19,31,26,15,32,15,18,18,15,26,38,19,12,32,32,33,0,0,0,0,0,0,0,0,0,0,0,0,0,0,0,0,0,0,0,0,0,0,0,0,0,0,0,0,0,0,0,0],"split_type":[0,0,0,0,0,0,0,0,0,0,0,0,0,0,0,0,0,0,0,0,0,0,0,0,0,0,0,0,0,0,0,0,0,0,0,0,0,0,0,0,0,0,0,0,0,0,0,0,0,0,0,0,0,0,0,0,0,0,0,0,0,0,0],"sum_hessian":[6.684941E3,4.324177E3,2.3607642E3,3.7820955E3,5.420812E2,1.9176996E3,4.430646E2,3.678086E3,1.0400954E2,4.3630933E2,1.0577186E2,1.0621819E3,8.555177E2,3.727198E2,7.034482E1,3.277291E3,4.0079492E2,3.1884552E1,7.2124985E1,1.8927797E2,2.4703136E2,8.852342E1,1.7248438E1,5.8691876E2,4.7526318E2,4.7155463E2,3.839631E2,3.0192215E2,7.079764E1,6.382208E1,6.522743E0,3.2224517E3,5.483933E1,2.2457765E2,1.7621727E2,2.483169E1,7.0528607E0,5.079491E1,2.1330074E1,1.1095083E2,7.832715E1,1.8656044E2,6.047091E1,1.6674509E0,8.685597E1,9.051159E0,8.197279E0,4.0453635E2,1.823824E2,3.5732034E2,1.1794284E2,4.3597318E2,3.558144E1,2.1341295E2,1.7055014E2,2.0142819E2,1.00493965E2,5.169046E1,1.9107176E1,4.4775826E1,1.9046253E1,3.8871255E0,2.6356177E0],"tree_param":{"num_deleted":"0","num_feature":"59","num_nodes":"63","size_leaf_vector":"1"}},{"base_weights":[3.8072458E-3,1.4790894E-1,-3.5474193E-1,2.360665E-1,-4.072692E-1,-5.148134E-1,-1.0714252E-1,3.3482888E-1,2.4822526E-2,-1.6500789E-1,-5.3693265E-1,-3.1044212E-1,-6.9147044E-1,9.448785E-2,-2.879721E-1,4.1006267E-1,-1.2383002E-1,-1.7189914E-1,1.485773E-1,-2.7740726E-2,-6.631116E-1,-6.6346383E-1,-3.4606805E-1,-1.5243489E-1,-6.656811E-1,-7.299611E-1,-1.8477128E-1,1.7267759E-1,-4.525358E-1,-4.3551588E-1,-2.904306E-2,4.799096E-2,4.5185257E-3,1.0127985E-2,-5.663712E-2,-3.752488E-2,1.3394226E-2,1.6929746E-2,-5.0594665E-2,1.2281745E-2,-4.6285145E-2,-3.8150303E-2,-7.6785535E-2,-7.269784E-2,-2.077604E-2,-1.1846139E-2,-6.272606E-2,-1.4630808E-3,-6.424949E-2,-7.3004454E-2,-2.289277E-2,-6.016254E-2,-7.8997724E-2,6.470313E-3,-6.0277548E-2,2.1918012E-2,-5.1286664E-2,-5.884675E-2,2.6183197E-2,-5.852909E-2,-6.555519E-4,3.9097057E-3,-5.237351E-2],"categories":[],"categories_nodes":[],"categories_segments":[],"categories_sizes":[],"default_left":[0,0,0,0,0,0,0,0,0,0,0,0,0,0,0,0,0,0,0,0,0,0,0,0,0,0,0,0,0,0,0,0,0,0,0,0,0,0,0,0,0,0,0,0,0,0,0,0,0,0,0,0,0,0,0,0,0,0,0,0,0,0,0],"id":21,"left_children":[1,3,5,7,9,11,13,15,17,19,21,23,25,27,29,31,33,35,37,39,41,43,45,47,49,51,53,55,57,59,61,-1,-1,-1,-1,-1,-1,-1,-1,-1,-1,-1,-1,-1,-1,-1,-1,-1,-1,-1,-1,-1,-1,-1,-1,-1,-1,-1,-1,-1,-1,-1,-1],"loss_changes":[7.9231415E2,5.35465E2,1.7418414E2,1.9694391E2,4.7008133E1,9.617505E1,6.3011147E1,2.2202179E2,7.32702E1,3.581897E1,2.334497E1,6.9478966E1,2.7777771E1,3.504398E1,3.4788536E1,1.4082324E2,9.043655E1,7.233401E1,2.513882E1,2.7043427E1,3.0458984E0,1.680774E1,2.4965607E1,5.8020493E1,1.0552444E1,9.76709E0,1.0715442E1,2.2937756E1,1.0108677E1,3.7273468E1,1.1202605E1,0E0,0E0,0E0,0E0,0E0,0E0,0E0,0E0,0E0,0E0,0E0,0E0,0E0,0E0,0E0,0E0,0E0,0E0,0E0,0E0,0E0,0E0,0E0,0E0,0E0,0E0,0E0,0E0,0E0,0E0,0E0,0E0],"parents":[2147483647,0,0,1,1,2,2,3,3,4,4,5,5,6,6,7,7,8,8,9,9,10,10,11,11,12,12,13,13,14,14,15,15,16,16,17,17,18,18,19,19,20,20,21,21,22,22,23,23,24,24,25,25,26,26,27,27,28,28,29,29,30,30],"right_children":[2,4,6,8,10,12,14,16,18,20,22,24,26,28,30,32,34,36,38,40,42,44,46,48,50,52,54,56,58,60,62,-1,-1,-1,-1,-1,-1,-1,-1,-1,-1,-1,-1,-1,-1,-1,-1,-1,-1,-1,-1,-1,-1,-1,-1,-1,-1,-1,-1,-1,-1,-1,-1],"split_conditions":[3.6913487E-1,1.1510944E0,-1.3044423E-1,-1.7080139E-1,-3.7250632E-1,9.474724E-2,-2.1014334E-1,4.1539633E-1,-3.7677357E-1,1.329817E0,-1.7080139E-1,-1.7080139E-1,1.2918976E-1,2.290149E0,8.425759E-1,6.571508E-1,-1.3888778E-1,1.19489655E-2,2.7985218E0,2.6462228E0,1.5070775E0,4.2472258E0,2.1241145E0,1.3296419E0,1.548532E-1,8.493884E-1,1.3296419E0,2.764884E0,1.7681316E0,4.4859415E-1,2.290149E0,4.799096E-2,4.5185257E-3,1.0127985E-2,-5.663712E-2,-3.752488E-2,1.3394226E-2,1.6929746E-2,-5.0594665E-2,1.2281745E-2,-4.6285145E-2,-3.8150303E-2,-7.6785535E-2,-7.269784E-2,-2.077604E-2,-1.1846139E-2,-6.272606E-2,-1.4630808E-3,-6.424949E-2,-7.3004454E-2,-2.289277E-2,-6.016254E-2,-7.8997724E-2,6.470313E-3,-6.0277548E-2,2.1918012E-2,-5.1286664E-2,-5.884675E-2,2.6183197E-2,-5.852909E-2,-6.555519E-4,3.9097057E-3,-5.237351E-2],"split_indices":[32,12,12,15,31,38,26,12,31,19,15,15,18,32,12,38,19,12,19,12,12,13,12,32,19,32,32,12,12,19,32,0,0,0,0,0,0,0,0,0,0,0,0,0,0,0,0,0,0,0,0,0,0,0,0,0,0,0,0,0,0,0,0],"split_type":[0,0,0,0,0,0,0,0,0,0,0,0,0,0,0,0,0,0,0,0,0,0,0,0,0,0,0,0,0,0,0,0,0,0,0,0,0,0,0,0,0,0,0,0,0,0,0,0,0,0,0,0,0,0,0,0,0,0,0,0,0,0,0],"sum_hessian":[1.5332837E4,1.0937585E4,4.395252E3,9.439282E3,1.4983029E3,2.668806E3,1.7264459E3,6.4317E3,3.0075818E3,5.2314276E2,9.751601E2,1.2386228E3,1.4301831E3,8.165007E2,9.0994525E2,5.5254644E3,9.0623584E2,1.1612537E3,1.8463281E3,4.1094928E2,1.1219348E2,5.849193E2,3.9024078E2,8.582913E2,3.8033145E2,1.328802E3,1.0138111E2,7.149872E2,1.0151354E2,5.7921375E2,3.307315E2,4.6374272E3,8.880375E2,6.011942E2,3.0504163E2,6.9736115E2,4.6389255E2,1.7903914E3,5.5936787E1,3.0583957E2,1.051097E2,3.1675253E1,8.051823E1,5.1284515E2,7.207418E1,2.1645561E2,1.7378516E2,6.7071674E2,1.875746E2,3.3089645E2,4.943502E1,4.269201E2,9.018819E2,6.401857E1,3.7362534E1,6.702054E2,4.4781773E1,8.543332E1,1.6080225E1,4.2904483E2,1.5016893E2,2.9150046E2,3.9231033E1],"tree_param":{"num_deleted":"0","num_feature":"59","num_nodes":"63","size_leaf_vector":"1"}},{"base_weights":[7.265119E-3,1.8203324E-1,-2.3496772E-1,2.902368E-1,-1.1414675E-1,-3.8359925E-1,4.5534223E-2,3.4868777E-1,-3.0894244E-1,-2.4982086E-1,1.9102862E-2,-4.5134905E-1,2.2431017E-1,2.163557E-1,-2.4728344E-1,4.0643275E-1,-6.042004E-2,-1.2875794E-1,-5.2258426E-1,-3.7375447E-1,-7.528909E-2,1.3987717E-1,-1.8986608E-1,-4.9454883E-1,-3.798985E-1,6.62403E-1,-1.7258938E-1,3.3568427E-1,-1.4671385E-1,-1.3803248E-1,-3.8518396E-1,4.9539797E-2,2.9741002E-2,-1.9652931E-2,3.402458E-2,-2.5081268E-2,4.171024E-2,-5.358956E-2,6.6560335E-2,-3.199499E-2,-4.898839E-2,-1.9692581E-2,2.8312936E-2,1.833098E-2,-3.7097406E-2,-2.3863927E-2,4.339761E-2,-5.0592072E-2,-1.9271648E-2,-3.342019E-2,-5.1922675E-2,7.0607804E-2,-3.108052E-2,5.559385E-3,-3.6302216E-2,2.9536938E-2,7.766776E-2,-2.7995342E-2,5.3760423E-3,-2.0719035E-2,3.378438E-2,-4.0779192E-2,1.52312135E-2],"categories":[],"categories_nodes":[],"categories_segments":[],"categories_sizes":[],"default_left":[0,0,0,0,0,0,0,0,0,0,0,0,0,0,0,0,0,0,0,0,0,0,0,0,0,0,0,0,0,0,0,0,0,0,0,0,0,0,0,0,0,0,0,0,0,0,0,0,0,0,0,0,0,0,0,0,0,0,0,0,0,0,0],"id":22,"left_children":[1,3,5,7,9,11,13,15,17,19,21,23,25,27,29,31,33,35,37,39,41,43,45,47,49,51,53,55,57,59,61,-1,-1,-1,-1,-1,-1,-1,-1,-1,-1,-1,-1,-1,-1,-1,-1,-1,-1,-1,-1,-1,-1,-1,-1,-1,-1,-1,-1,-1,-1,-1,-1],"loss_changes":[3.6100696E2,1.5878233E2,1.4902013E2,1.2718234E2,2.3979868E1,9.631943E1,6.2014576E1,7.813312E1,1.2367472E1,1.4186794E1,1.6935802E1,6.3011475E0,4.0962624E1,3.396696E1,6.829809E0,2.7956268E1,2.2416727E1,1.1867875E1,2.6890335E0,2.242855E0,1.2007183E1,9.5015E0,7.583061E0,4.3880615E0,4.897278E0,4.974636E0,5.4106007E0,1.025148E1,5.206405E0,8.510548E0,2.5093842E0,0E0,0E0,0E0,0E0,0E0,0E0,0E0,0E0,0E0,0E0,0E0,0E0,0E0,0E0,0E0,0E0,0E0,0E0,0E0,0E0,0E0,0E0,0E0,0E0,0E0,0E0,0E0,0E0,0E0,0E0,0E0,0E0],"parents":[2147483647,0,0,1,1,2,2,3,3,4,4,5,5,6,6,7,7,8,8,9,9,10,10,11,11,12,12,13,13,14,14,15,15,16,16,17,17,18,18,19,19,20,20,21,21,22,22,23,23,24,24,25,25,26,26,27,27,28,28,29,29,30,30],"right_children":[2,4,6,8,10,12,14,16,18,20,22,24,26,28,30,32,34,36,38,40,42,44,46,48,50,52,54,56,58,60,62,-1,-1,-1,-1,-1,-1,-1,-1,-1,-1,-1,-1,-1,-1,-1,-1,-1,-1,-1,-1,-1,-1,-1,-1,-1,-1,-1,-1,-1,-1,-1,-1],"split_conditions":[-3.7677357E-1,2.0180655E-1,-1.7080139E-1,1.8098955E0,3.6913487E-1,1.7547888E0,-2.8472233E-1,7.4233514E-1,2.7704027E0,-8.215641E-2,1.1273623E0,-3.551543E-2,-7.949458E-1,2.9673535E-1,6.0525393E-1,-6.2882036E-1,-1.4614987E-1,-1.9274187E-1,1.6217503E1,4.4859415E-1,1.0660515E-1,2.7704027E0,3.8225467E0,1.76255E-1,1.3646842E0,3.4633073E-1,-4.62695E-1,8.711214E-1,2.5650138E-2,3.287883E-1,1.5455855E0,4.9539797E-2,2.9741002E-2,-1.9652931E-2,3.402458E-2,-2.5081268E-2,4.171024E-2,-5.358956E-2,6.6560335E-2,-3.199499E-2,-4.898839E-2,-1.9692581E-2,2.8312936E-2,1.833098E-2,-3.7097406E-2,-2.3863927E-2,4.339761E-2,-5.0592072E-2,-1.9271648E-2,-3.342019E-2,-5.1922675E-2,7.0607804E-2,-3.108052E-2,5.559385E-3,-3.6302216E-2,2.9536938E-2,7.766776E-2,-2.7995342E-2,5.3760423E-3,-2.0719035E-2,3.378438E-2,-4.0779192E-2,1.52312135E-2],"split_indices":[31,12,15,32,32,38,18,19,32,26,12,12,12,12,12,12,26,18,32,19,13,32,13,38,12,11,12,14,14,14,38,0,0,0,0,0,0,0,0,0,0,0,0,0,0,0,0,0,0,0,0,0,0,0,0,0,0,0,0,0,0,0,0],"split_type":[0,0,0,0,0,0,0,0,0,0,0,0,0,0,0,0,0,0,0,0,0,0,0,0,0,0,0,0,0,0,0,0,0,0,0,0,0,0,0,0,0,0,0,0,0,0,0,0,0,0,0,0,0,0,0,0,0,0,0,0,0,0,0],"sum_hessian":[8.525463E3,4.952524E3,3.5729387E3,3.6273591E3,1.3251646E3,2.3352014E3,1.2377372E3,3.305336E3,3.220232E2,6.5617523E2,6.689893E2,2.1012776E3,2.3392392E2,7.818748E2,4.5586237E2,2.8965051E3,4.0883093E2,1.7555966E2,1.4646352E2,3.8304004E2,2.731352E2,4.2416965E2,2.4481966E2,1.3058346E3,7.9544293E2,1.10873825E2,1.23050095E2,5.885229E2,1.9335194E2,2.5546918E2,2.0039319E2,1.5930188E3,1.3034863E3,3.055446E2,1.03286354E2,1.4391965E2,3.1640015E1,1.4538376E2,1.0797664E0,2.6432788E2,1.1871217E2,2.0426442E2,6.887078E1,3.9152344E2,3.264619E1,2.2763982E2,1.717985E1,1.2577706E3,4.806404E1,6.015473E2,1.9389563E2,1.06374504E2,4.4993186E0,5.6298878E1,6.675122E1,5.407575E2,4.7765358E1,1.1591552E2,7.743642E1,2.2354637E2,3.19228E1,1.925361E2,7.8570766E0],"tree_param":{"num_deleted":"0","num_feature":"59","num_nodes":"63","size_leaf_vector":"1"}},{"base_weights":[-9.915237E-3,-2.8426406E-1,7.868355E-1,-4.6717563E-1,3.5209702E-3,4.291755E-1,9.755048E-1,-5.3146297E-1,-1.5164953E-1,-1.1538982E-1,5.9135926E-1,5.8673817E-1,-8.183538E-2,1.0708789E0,3.865639E-1,-5.456248E-1,-4.2269206E-1,1.0251714E-1,-4.329893E-1,2.823833E-2,-4.6495506E-1,8.0302674E-1,-1.7791067E-1,3.767796E-1,9.531769E-1,-3.5511413E-1,2.4254481E-1,1.1272763E0,5.2535254E-1,8.858973E-2,1.0964369E0,-5.476869E-2,-4.595465E-2,-1.975823E-2,-5.055085E-2,3.2333024E-2,-5.439779E-2,-5.140956E-2,-2.6259908E-2,2.7157098E-2,-2.4548212E-2,-4.8365828E-2,6.0567893E-2,9.435547E-2,8.995951E-3,-3.0447233E-2,1.3333938E-1,7.0975885E-2,-1.36772115E-2,1.0227605E-1,7.942519E-4,2.4595268E-2,-4.1410323E-2,6.317308E-2,-2.6149431E-2,9.193219E-2,1.2137177E-1,2.1969294E-2,1.24801695E-1,-6.7515494E-3,8.8799566E-2,1.1948302E-1,-5.297447E-3],"categories":[],"categories_nodes":[],"categories_segments":[],"categories_sizes":[],"default_left":[0,0,0,0,0,0,0,0,0,0,0,0,0,0,0,0,0,0,0,0,0,0,0,0,0,0,0,0,0,0,0,0,0,0,0,0,0,0,0,0,0,0,0,0,0,0,0,0,0,0,0,0,0,0,0,0,0,0,0,0,0,0,0],"id":23,"left_children":[1,3,5,7,9,11,13,15,17,19,21,23,25,27,29,31,33,35,37,39,41,43,45,47,49,51,53,55,57,59,61,-1,-1,-1,-1,-1,-1,-1,-1,-1,-1,-1,-1,-1,-1,-1,-1,-1,-1,-1,-1,-1,-1,-1,-1,-1,-1,-1,-1,-1,-1,-1,-1],"loss_changes":[1.557196E3,2.78946E2,1.2271106E2,6.563928E1,1.4407959E2,5.0928444E1,6.664014E1,3.914795E0,3.9358444E1,8.609071E1,5.6611977E1,3.6810913E1,1.3365684E1,3.0999634E1,3.542683E1,1.7028809E-1,5.762474E0,4.152522E1,3.473854E0,8.106529E1,1.0291809E1,2.7185944E1,1.4876032E1,5.2901604E1,1.1523788E1,2.9990664E0,1.3718586E1,1.5597168E1,2.1391071E1,1.4957299E1,5.668831E0,0E0,0E0,0E0,0E0,0E0,0E0,0E0,0E0,0E0,0E0,0E0,0E0,0E0,0E0,0E0,0E0,0E0,0E0,0E0,0E0,0E0,0E0,0E0,0E0,0E0,0E0,0E0,0E0,0E0,0E0,0E0,0E0],"parents":[2147483647,0,0,1,1,2,2,3,3,4,4,5,5,6,6,7,7,8,8,9,9,10,10,11,11,12,12,13,13,14,14,15,15,16,16,17,17,18,18,19,19,20,20,21,21,22,22,23,23,24,24,25,25,26,26,27,27,28,28,29,29,30,30],"right_children":[2,4,6,8,10,12,14,16,18,20,22,24,26,28,30,32,34,36,38,40,42,44,46,48,50,52,54,56,58,60,62,-1,-1,-1,-1,-1,-1,-1,-1,-1,-1,-1,-1,-1,-1,-1,-1,-1,-1,-1,-1,-1,-1,-1,-1,-1,-1,-1,-1,-1,-1,-1,-1],"split_conditions":[8.493884E-1,-1.7080139E-1,1.3296419E0,1.1652158E0,6.571508E-1,-2.8472233E-1,5.577895E-1,3.6913487E-1,-7.00017E-1,-1.3888778E-1,4.3912852E-1,-1.8881218E-1,-1.6748103E-1,7.4233514E-1,3.2506561E0,6.8975395E-1,-8.4241015E-1,-3.810408E-1,3.6913487E-1,-3.8530803E-1,4.4827104E0,1.548532E-1,7.219206E-1,-6.525526E-1,8.188437E-1,-1.0479008E0,3.4633073E-1,3.365536E-1,2.7704027E0,5.791094E-1,2.5750263E0,-5.476869E-2,-4.595465E-2,-1.975823E-2,